, 0.18378 -0.12123 -0.11987 0.015227 -0.19121 -0.066074 -2.9876 0.80795 0.067338 -0.13184 -0.5274 0.44521 0.12982 -0.21823 -0.4508 -0.22478 -0.30766 -0.11137 -0.162 -0.21294 -0.46022 -0.086593 -0.24902 0.46729 -0.6023 -0.44972 0.43946 0.014738 0.27498 -0.078421 0.36009 0.12172 0.4298 -0.055345 0.4495 -0.74444 -0.26702 0.16431 -0.19335 0.13468 0.2887 0.23924 -0.23579 -0.28972 0.20149 0.048135 -0.18322 -0.15492 -0.19255 0.40271 0.16051 0.17721 0.32557 0.011625 -0.42572 0.34205 -0.45865 -0.2486 0.034128 0.03306 -0.057065 0.18136 -0.43638 0.0005709 -0.11935 -0.2195 0.16429 -0.18119 -0.19145 -0.081672 -0.2962 0.25803 0.073848 0.54213 -0.15405 -0.49256 0.091719 0.13329 -0.05253 -0.20518 0.34576 -1.0449 0.072779 -0.0003453 -0.16926 0.051019 -0.14753 0.23848 -0.40749 -0.58278 -0.48695 0.25863 -0.20531 -0.4775 0.40645 -0.038512 -2.403 -0.12421 0.63149 0.089419 0.08557 -0.20757 -0.1617 -0.29506 -0.13948 0.14202 -0.30138 -0.15806 0.52984 0.24229 0.075169 0.13792 0.90416 -0.23647 0.027788 0.099915 0.45422 0.60176 0.25044 0.29142 0.040712 -0.08121 -0.43786 -0.3015 -0.17991 -0.52149 0.029446 -0.23051 0.073955 0.34751 0.07806 0.19801 -0.32246 -0.13827 0.10076 0.56601 0.31925 0.09426 -0.045898 0.78329 0.19997 0.1619 0.41579 -0.31467 -0.036655 -0.11687 -0.17942 0.16246 0.42221 0.19588 -0.025058 -0.018717 -0.17965 0.35635 0.25853 0.13139 0.026784 0.017271 -0.14781 0.30598 -0.033228 0.15521 -0.50574 0.1295 0.14602 -0.35552 -0.43194 -0.1029 0.04736 -0.57903 -0.42488 0.67163 -0.11182 0.29306 -0.0033312 0.13091 -0.086655 0.22618 0.29357 -0.3088 -0.42705 0.3268 0.39254 0.17474 -0.19659 0.35665 0.38025 0.24257 -0.17021 0.097295 0.45248 -0.40589 0.27886 -0.33315 0.37076 0.16742 -0.28582 -0.051604 -0.090346 0.095385 0.26395 -0.30008 -0.63244 0.076666 0.14102 0.88613 -0.053817 0.26223 -0.016005 -0.040608 0.082136 -0.08159 -0.068912 -0.62239 -0.014757 -0.033402 0.25847 -0.28878 -0.27143 -0.23709 -0.11285 0.24828 0.14512 0.3373 -4.1005 -0.075261 0.32638 0.21444 0.37972 0.029263 0.24594 0.42935 0.68689 -0.58112 0.22939 -0.38889 0.41684 0.066217 0.47901 0.27427 0.41645 -0.35492 -0.14413 -0.010046 -0.42024 -0.19382 0.36156 -0.13364 -0.29853 0.47537 -0.26989 -0.083662 -0.0741 0.21815 -0.30678 -0.83499 -0.11287 -0.32612 0.12375 0.35341 -0.32607 0.32853 0.060266 -0.21991 0.35671 0.29546 -0.48159 -0.22347 0.31036 0.22132 -0.20994 -0.085675 -0.26173 -0.10764 -0.14802 0.17573 -0.17804 -0.21765 0.3073 -0.4459 0.03913 -0.22065 0.2214 0.32727 -0.40378 0.33021 -0.13942 -0.41003 -0.17526 0.21852 0.13615 0.10999 -0.33474 -0.046109 0.1078 -0.035657 -0.012921 -0.039038 0.18274 0.14654
the -0.20838 -0.14932 -0.017528 -0.028432 -0.060104 -0.2646 -4.1445 0.62932 0.33672 -0.43395 0.39899 -0.19573 0.13977 -0.021519 0.37823 -0.5525 -0.1123 -0.0081443 0.29059 0.066817 0.10465 -0.086943 -0.048983 -0.26757 -0.47038 0.27469 0.069245 -0.027967 -0.19719 0.016749 -0.29681 0.17838 0.058374 -0.24806 0.085846 0.35043 0.049157 -0.16431 0.50012 -0.18053 0.31422 0.10671 0.031852 0.074278 0.27956 0.080317 0.05478 -0.30349 -0.43215 0.32417 0.40856 0.36192 0.13445 -0.12933 0.11331 -0.15755 0.35755 0.30463 -0.098488 0.012032 0.45581 0.37101 0.1427 -0.43329 -0.10869 0.49849 0.54455 0.44352 0.31804 0.022171 -0.41186 -0.025428 0.21062 -0.3583 0.22028 -0.55391 -0.035364 -0.053998 0.32172 -0.51928 -0.27427 -0.45214 -0.329 -0.48519 0.52966 0.0041434 -0.1718 -0.18748 -0.24365 -0.060786 0.050733 -0.21335 0.27627 0.42745 0.011461 -0.29794 -3.2881 -0.39842 0.16796 -0.12894 0.0020005 0.45613 0.15215 0.15364 -0.21281 -0.25339 0.28955 -0.57817 -0.6074 0.10301 0.28324 0.21506 -0.042325 0.40479 -0.20579 -0.011674 0.26092 -0.15402 0.057961 -0.058576 -0.41974 0.52015 0.15074 -0.088039 -0.14446 -0.17074 0.083752 -0.25708 0.16362 0.14795 -0.059821 0.034473 -0.14534 -0.17965 0.076303 0.33354 -0.14434 0.17618 0.45345 0.15262 -0.0751 0.27592 0.081456 0.30738 -0.072327 0.10706 -0.35581 -0.02669 0.61236 0.70829 -0.28945 -0.024637 0.01189 -0.091899 -0.27272 -0.10157 0.44713 0.092418 -0.10711 -0.015552 0.12822 0.22256 -0.069059 0.29927 -0.10913 0.1618 0.14796 0.1136 0.26634 0.010832 0.071946 0.16973 -0.22769 0.322 -0.083748 0.65269 0.068244 -0.32687 0.31782 0.17035 0.79803 -0.19194 -0.16485 -0.32437 0.079105 -0.35672 -0.26786 -0.24786 0.70512 -0.11909 0.16256 -0.43259 -0.050078 0.050232 -0.1145 -0.041885 0.47866 0.012767 0.19642 0.26196 -0.29425 0.089615 -0.17736 -0.22448 0.22624 0.16749 0.05577 0.14399 0.2158 0.33819 0.23459 0.15826 -0.2856 0.24199 0.11018 0.38164 -0.2984 -0.20169 0.2695 0.11186 -0.21006 -0.04207 0.016507 -0.22866 -3.3882 0.29204 -0.088358 -0.014966 -0.25225 -0.11503 0.036337 -0.14817 0.04622 -0.073466 -0.13866 0.23612 0.033882 0.29495 -0.61234 0.20289 -0.42091 0.37767 0.03626 0.21708 0.12561 -0.21682 -0.0037997 -0.17791 -0.26431 0.31678 -0.051229 0.049269 -0.12622 -0.10117 0.017246 -0.02195 -0.1982 0.03725 -0.16791 -0.055459 0.5767 0.059123 0.22931 0.064201 0.27424 -0.37129 -0.091375 -0.071342 -0.037218 -0.012668 -0.017976 -0.42622 -0.10095 0.044992 -0.090225 0.22915 0.1861 0.36366 -0.20676 -0.33037 0.47302 0.2338 0.079306 0.21083 0.21013 0.15275 0.080873 -0.33013 -0.17181 -0.07017 -0.041244 -0.46182 0.027903 0.54657 -0.25894 0.39515 0.26144 -0.54066 0.21199 -0.0094357
. 0.10876 0.0022438 0.22213 -0.12102 -0.048959 0.018135 -3.8174 -0.032631 -0.62594 -0.51898 -0.35893 0.78871 -0.29777 0.005186 -0.41814 0.24691 -0.13584 -0.19046 -0.29987 -0.63696 -0.065406 0.11436 -0.021438 0.17501 -0.19494 -0.089508 -0.10631 -0.24107 0.12856 0.33577 0.051281 0.13849 0.24562 -0.40412 -0.16927 0.22167 0.24016 -0.032447 0.11127 -0.01178 -0.19622 -0.59113 -0.13265 -0.21192 0.17192 -0.18961 -0.34916 -0.098324 -0.42555 0.026523 -0.41361 -0.21346 -0.19775 0.0093893 -0.25976 -0.48221 -0.10778 0.029514 0.29254 -0.14844 0.73861 -0.10725 0.13759 0.54075 -0.1347 0.12982 0.036717 0.32338 -0.077501 -0.04642 -0.23924 -0.25071 -0.059339 -0.40909 0.022929 -0.36144 0.016797 -0.0070788 -0.15447 -0.36141 -0.22258 -0.44854 0.070369 0.19246 0.38875 0.10956 0.20907 0.60839 0.060436 0.042908 -0.13592 -0.1407 -0.56612 0.048278 -0.23504 -0.27897 -2.2884 0.11096 -0.19271 0.14455 0.28472 -0.20574 -0.036538 0.35877 0.16868 -0.063331 -0.18492 0.28085 0.85193 0.28055 -0.20985 -0.19593 0.81482 0.25215 -0.62068 0.41435 0.10557 -0.3093 -0.096312 0.13028 0.15084 -0.50123 0.15623 -0.20892 -0.28956 0.012043 -0.097626 -0.26242 0.096474 0.25771 -0.10903 -0.10082 -0.14434 -0.32984 -0.046379 0.031062 0.014825 0.091645 -0.067844 0.046894 0.15272 -0.088693 0.19054 0.67088 -0.059463 -0.21187 0.16674 -0.23207 0.33023 -0.23966 -0.48016 -0.18978 0.51637 0.13811 -0.26918 0.089576 -0.54118 0.53692 -0.18972 0.046074 -0.27932 -0.10529 -0.73563 -0.087796 0.39539 -0.44176 -0.62707 -0.21666 0.36325 -0.38248 0.49247 0.066497 0.016996 0.17387 -0.30563 -0.036247 0.094577 -0.40638 -0.11703 -0.044589 -0.41872 0.55478 -0.050797 -0.51106 0.081849 -0.23704 0.12522 0.56392 0.22459 0.5077 0.12011 -0.18115 -0.11125 -0.060846 -0.582 -0.32602 -0.061308 0.32683 0.099323 0.2721 0.32524 0.021033 -0.047185 0.51143 0.3579 0.35536 0.005939 0.49009 0.056522 -0.1218 0.021951 -0.21458 0.41146 -0.086966 0.42673 -0.18731 -0.29233 -0.019558 -0.5649 -0.25493 0.12111 0.10869 -0.16795 -0.010423 -3.6964 -0.22244 -0.16492 0.12317 -0.010062 -0.53517 0.30557 0.03702 0.4443 0.015176 -0.26279 -0.065307 0.33099 0.35048 -0.3176 -0.2243 -0.3004 0.24022 -0.18502 -0.66931 0.14986 -0.15948 0.141 -0.047219 -0.083048 0.16829 0.044241 0.35777 -0.22207 0.067496 0.24111 -0.20181 0.64122 0.05656 -0.32635 0.28111 -0.15638 -0.045039 0.14662 -0.41362 0.29122 0.48036 -0.65526 0.041017 -0.40086 0.11574 0.02623 0.028116 -0.4088 0.17148 -0.50448 0.10087 0.3922 0.14905 0.20962 -0.11509 0.32092 -0.32045 0.035085 0.67025 -0.61808 -0.13169 -0.032892 0.21476 -0.0033323 0.52406 0.063131 -0.2123 -0.30088 -0.45161 0.2648 0.075971 -0.40688 -0.29696 0.15939 -0.14902
and -0.09611 -0.25788 -0.3586 -0.32887 0.5795 -0.51774 -4.1582 -0.11371 -0.10848 -0.48885 0.19931 -0.1054 -0.43825 -0.34483 -0.45052 -0.34864 -0.458 -0.81554 0.22006 0.20254 -0.10954 0.1252 -0.54117 0.34731 -0.099998 -0.018998 -0.14277 -0.42481 -0.0094091 -0.43155 -0.038769 0.12147 0.51988 -0.4984 -0.24625 -0.52067 -0.05821 -0.30712 0.25512 0.048033 -0.22313 -0.0069182 0.039824 -0.50088 -0.11972 -0.079045 0.01688 -0.34052 -0.2066 0.081265 0.12352 -0.49007 0.34946 -0.29241 0.14893 0.1366 -0.09783 -0.068472 -0.010913 0.0028454 -0.12656 0.3427 0.1058 -0.46151 0.070133 -0.061343 -0.015021 0.17659 0.17941 -0.51377 -0.31381 -0.1372 0.045186 -0.082259 0.21515 -0.21955 0.10313 -0.20704 0.14041 -0.35151 0.62316 -0.5799 -0.056115 -0.0021746 0.18958 0.22398 0.12246 -0.26178 0.010779 -0.31268 -0.21447 0.35344 -0.026041 0.018232 0.35751 -0.070188 -3.0872 -0.13131 0.017387 0.23244 -0.060585 0.20679 0.57579 0.36338 -0.41574 0.030607 0.23619 -0.11284 -0.36043 0.21635 -0.02752 0.17502 0.43491 -0.088247 0.40754 -0.48551 0.13539 -0.090759 0.14423 0.34118 -0.3794 -0.27344 0.02593 0.073217 -0.10176 0.16551 -0.23278 -0.18563 0.021372 -0.093111 0.15179 0.15057 0.55148 -0.20088 -0.079495 0.22599 0.26243 0.25123 0.60266 -0.20423 0.36972 -0.10694 0.0072887 0.018359 0.22368 -0.14065 0.1112 0.087667 0.8466 0.31545 -0.15348 0.020311 0.020878 0.38651 0.047422 -0.24854 -0.19053 0.49173 0.038161 -0.021038 0.14496 0.11591 -0.15105 -0.18942 0.18703 0.026752 0.0046523 0.39814 -0.018617 -0.73177 0.072832 0.41535 -0.48818 0.00304 -0.22729 0.88248 -0.61612 -0.18901 -0.33491 -0.28672 -0.013143 -0.37545 -0.18443 -0.55218 0.70186 -0.073107 0.6393 0.13098 0.071586 0.0053641 0.24636 -0.70744 -0.45036 0.00060187 -0.39093 -0.02716 0.25589 -0.17313 0.29883 -0.00090947 0.08314 -0.4099 -0.013024 -0.049533 0.3041 0.64302 0.23045 -0.18757 0.037584 -0.26082 0.1753 -0.062815 -0.22569 -0.1213 0.15524 -0.14407 0.088732 0.34674 -0.43494 0.38688 -0.15733 -0.12721 0.30194 0.32034 -3.3264 0.069427 0.13848 -0.058216 -0.027088 0.11028 0.3404 0.18654 0.11522 -0.40381 0.044776 0.15535 0.16247 -0.24051 0.04729 0.03498 -0.075942 0.15598 -0.059873 0.0046743 0.15595 -0.27613 0.13562 0.13485 -0.073724 0.31421 0.031234 -0.23516 0.31005 -0.10375 -0.30783 -0.55327 0.28304 0.081429 0.37778 0.15725 0.011757 0.043006 -0.43423 -0.22718 -0.043292 -0.63617 -0.8939 -0.17406 0.41111 -0.14404 -0.1678 -0.44438 -0.73051 0.10957 0.13122 0.085623 0.12504 -0.40337 0.041765 -0.27574 0.062513 0.051093 0.39926 0.11149 -0.056462 0.26809 -0.39569 0.31033 -0.04975 -0.33139 0.47781 -0.021213 -0.21236 0.42374 0.14083 0.067498 -0.12675 -0.3703 -0.092774 0.39058
to -0.24837 -0.45461 0.039227 -0.28422 -0.031852 0.26355 -4.6323 0.01389 -0.53928 -0.084454 0.061556 -0.41552 -0.14599 -0.59321 -0.028738 -0.034991 -0.29698 -0.07985 0.27312 0.2204 -0.089859 0.00088265 -0.41991 -0.12536 -0.054629 0.03055 0.1934 -0.063945 0.027405 0.051193 -0.38656 -0.11085 0.17259 0.29804 -0.35183 0.1315 -0.54006 -0.76677 -0.00055168 0.13076 0.025101 0.62106 -0.24797 -0.3979 -0.36116 -0.51967 0.030138 -0.052436 0.069281 0.035252 -0.21402 0.24836 -0.15693 0.12829 0.35425 -0.1608 -0.005072 -0.30656 -0.29514 -0.13554 -0.14385 -0.40552 0.57233 -0.2767 0.30519 0.15586 0.016086 -0.22009 0.48589 -0.41384 0.20546 0.40491 0.041558 -0.13542 0.22544 -0.23629 0.15193 -0.010859 -0.082662 -0.55484 -0.061584 -0.11112 -0.11982 -0.37064 0.16501 0.44063 -0.33883 -0.57676 0.50847 -0.035707 -0.059233 0.030748 -0.27689 -0.070433 0.027786 -0.59336 -2.822 -0.10052 0.67168 -0.17046 -0.25902 0.27938 0.39992 0.03748 -0.26409 -0.26378 0.20645 0.17564 -0.080807 -0.38376 0.26602 0.36214 -0.095112 0.35199 -0.86994 -0.15747 -0.2255 -0.064948 -0.24845 0.15038 -0.32951 -0.22285 -0.025509 -0.29725 -0.37715 0.089296 -0.034399 0.3364 0.35534 0.38253 0.17646 0.13305 -0.32743 -0.47115 0.24673 -0.15964 0.18212 -0.41241 0.098565 0.38118 0.33043 0.051987 -0.21824 0.22214 -0.05945 -0.063743 0.43723 0.11068 0.47444 0.56891 0.31123 -0.20272 0.080078 -0.43905 -0.12246 -0.025057 -0.057162 0.1425 0.094468 0.12991 0.10444 -0.39447 -0.29337 -0.20466 0.20815 -0.1601 -0.14665 0.54511 0.2974 -0.22959 -0.1705 -0.062371 -0.50399 -0.38 -0.39528 0.57552 -0.46892 -0.43308 0.15018 -0.041179 0.62157 0.019874 -0.11969 -0.25611 0.26602 -0.37383 0.12936 -0.050006 -0.11554 -0.17163 -0.4243 0.19844 0.50611 -0.11093 -0.13939 -0.59377 0.67338 0.38497 0.62604 -0.20128 0.30058 -0.13946 -0.16186 0.12168 -0.01841 0.61356 -0.19887 0.1925 0.0084372 -0.50757 0.35858 -0.49729 -0.44725 0.021423 -0.20769 0.083729 0.22032 0.14404 0.001259 -0.44309 -0.17242 -0.353 -0.29477 0.32898 -3.191 0.3891 0.35654 0.052134 0.20576 -0.088649 0.16398 0.11203 0.2859 0.2894 -0.44349 0.91036 -0.30902 -0.13985 -0.39499 -0.027299 -0.15201 0.084418 -0.37196 0.049827 0.14128 -0.15126 -0.16107 0.0040226 0.16799 -0.25429 -0.15074 -0.57409 -0.15611 0.068407 0.24832 0.16828 0.072764 -0.086728 0.0021982 0.13593 0.70224 -0.45976 -0.24506 -0.33874 -0.10952 0.24698 -0.55919 -0.38866 -0.13372 0.091943 -0.10543 -0.31319 -0.29952 -0.20611 0.17976 0.458 -0.072402 0.16118 -0.41649 -0.30103 0.23234 -0.050139 0.10026 0.38974 -0.061342 0.26626 -0.15671 0.075136 -0.42926 -0.12025 0.082736 -0.62469 0.044267 0.60673 -0.12458 -0.15443 -0.16339 0.053097 0.15458 -0.38053
of -0.036429 -0.28592 0.063387 -0.60122 -0.015309 0.073243 -3.8547 0.52809 -0.077859 -0.40756 0.44713 0.0056261 -0.38887 -0.0092043 0.26061 -0.45271 -0.50423 -0.38904 -0.30564 0.42003 0.011568 -0.25619 0.55622 0.17323 -0.30415 0.06224 -0.29075 -0.51046 -0.45783 -0.49763 -0.18727 -0.24962 -0.73865 0.046438 0.11561 -0.031821 -0.26618 -0.41581 -0.071389 -0.2079 -0.17899 0.040931 0.1425 -0.43102 -0.2068 0.2589 -0.36623 -0.22408 -0.45842 0.82779 0.53323 0.213 0.14102 0.4644 -0.19063 0.13789 0.23394 -0.48319 0.020489 0.035165 0.1129 0.31478 -0.11344 -0.12321 -0.071496 0.12934 0.51611 -0.17039 -0.10672 0.69655 -0.48179 0.037786 -0.2011 0.21367 -0.023501 -0.43007 0.45458 -0.18225 0.045348 -0.73977 -0.018974 -1.1612 0.046104 -0.59842 0.48152 0.077035 0.079665 -0.059979 0.28133 -0.19488 0.33882 -0.022075 0.34987 0.43741 -0.20609 -0.27658 -3.4348 -0.25458 -0.011177 0.2142 0.21506 0.78159 -0.0064574 0.052498 -0.53285 -0.32415 0.032445 -0.46545 -0.86625 0.13234 0.22265 0.63226 -0.23883 0.20949 0.0081047 0.25664 0.12726 0.4862 0.63486 -0.11147 -0.22792 0.46799 0.098441 -0.22575 -0.050439 0.26147 -0.35885 0.34768 0.46181 0.6723 -0.0088817 -0.3072 0.032602 -0.18653 0.014603 0.21552 0.021596 0.13545 0.30614 0.020874 0.19128 -0.31014 -0.091298 -0.03491 0.089525 -0.14151 -0.10139 -0.10558 0.43202 0.38602 0.067725 -0.49517 -0.43656 0.53588 -0.42404 -0.073479 0.31768 -0.1902 -0.10048 -0.41895 -0.085678 -0.31469 0.20415 -0.16602 -0.10681 -0.17592 0.0045544 0.1717 0.15179 0.02964 0.31657 0.11772 -0.060541 0.54928 0.24473 0.60053 -0.27232 -0.010884 -0.32954 0.21139 -0.05083 0.033311 -0.28025 -0.46744 0.73776 -0.5466 0.2121 -0.088026 0.18173 -0.26704 -0.14732 0.010112 0.12324 0.19112 0.2311 -0.13961 -0.14684 0.35858 0.59945 0.25938 -0.33926 0.48621 0.19161 -0.37456 -0.064856 0.19457 0.3635 -0.11403 -0.50548 -0.030436 0.44118 0.11703 -0.15215 0.17065 -0.3151 -0.16841 -0.51375 -0.06952 -0.28814 0.32903 -0.033493 -0.046118 -0.21614 -0.054066 -3.2795 -0.14166 -0.10367 -0.042882 -0.052912 -0.156 0.20207 0.24538 0.0051342 0.067185 0.08875 0.14647 0.24244 -0.25878 -0.22634 -0.07779 -0.41721 0.0017983 -0.078582 -0.1313 0.10876 0.152 -0.41862 -0.18904 -0.33577 -0.022991 -0.19204 0.0017913 -0.22954 0.28383 -0.64747 0.12466 -0.019468 -0.6369 -0.2137 0.51779 0.23749 0.55759 -0.12286 0.20406 0.26386 -0.094897 -0.20743 0.14492 0.24069 0.52458 0.11511 0.044618 -0.57734 0.32207 -0.097548 0.21445 0.16075 0.16482 0.29271 -0.08841 0.67936 0.32115 -0.21867 0.26709 -0.15852 -0.017671 -0.0092939 0.17614 -0.10259 0.033329 -0.021308 -0.66019 0.090383 0.12859 0.22616 0.30235 -0.25703 -0.48926 0.30537 0.27273
a -0.035835 0.77844 -0.51806 0.080682 -0.13173 -0.28606 -4.2485 0.81827 0.24034 -0.69057 0.21556 -0.12434 -0.54229 -0.15138 -0.13591 -0.5348 0.34595 -0.22926 -0.013789 0.047816 -0.041427 -0.41058 0.10172 -0.097093 -0.00064646 -0.026877 -0.23473 -0.06019 -0.3141 -0.5624 -0.079395 -0.22116 0.098952 0.089909 -0.068699 0.30787 0.35724 0.27748 0.21167 -0.020939 -0.48188 -0.14981 -0.19693 -0.19514 -0.029672 -0.2862 0.059519 -0.15534 -0.041982 0.31305 -0.10834 0.74492 -0.26733 0.090418 0.32783 -0.35072 0.0019352 -0.16018 0.35431 -0.066866 -0.094903 -0.026866 -0.44347 0.13844 0.14952 0.34483 0.12546 0.4631 -0.0058689 -0.41446 0.12612 0.13602 -0.43715 0.096268 -0.18979 -0.75418 0.35777 -0.017479 -0.21907 -0.18382 -0.27002 -0.54582 -0.45421 -0.54994 -0.43079 -0.11863 -0.47369 -0.099825 -0.14261 -0.081525 0.33486 -0.4146 -0.079636 0.30339 -0.42575 -0.34956 -2.7357 -0.74104 0.2163 0.42723 0.035431 -0.05464 0.70669 -0.29739 0.0083191 -0.19281 0.32391 0.0087548 -0.16015 -0.059082 0.17503 0.35089 -0.01354 -0.33457 -0.051774 0.01569 1.029 0.044273 0.44906 -0.29036 -0.78684 -0.060001 0.11784 -0.1194 0.20565 -0.30654 -0.10883 -0.076856 -0.027208 -0.0032139 -0.19201 0.13827 0.15239 -0.085574 0.25771 0.035583 0.25709 -0.13264 0.64585 0.539 0.09338 0.17612 0.45444 -0.30252 -0.51751 -0.0077072 0.52078 -0.22996 0.51313 0.6185 -0.271 0.18719 0.3466 -0.27276 0.34786 -0.31713 0.13038 0.021235 -0.25821 -0.14553 0.65942 -0.19469 -0.17672 -0.17879 -0.29119 0.2739 -0.074949 -0.35214 0.12527 -0.1515 0.16561 -0.35536 0.26169 -0.66952 -0.037627 0.24556 -0.47338 -0.19609 -0.16514 0.18519 0.74366 0.099546 -0.30843 0.082241 -0.14698 -0.53421 -0.0061243 0.57767 0.34576 -0.16245 0.062227 -0.274 -0.10936 0.17974 0.32881 -0.0009029 0.072287 0.11748 0.25142 0.062339 0.44903 -0.00094289 0.18164 -0.29528 0.17274 0.41538 -0.1912 0.14755 0.39594 -0.16013 0.064232 -0.32972 0.2003 0.31493 -0.43744 -0.13939 -0.10015 -0.20848 -0.22608 -0.048169 0.20638 0.51249 -0.341 -0.004226 -3.4638 -0.12878 -0.47151 -0.42011 -0.04058 0.042346 0.11615 -0.041935 0.038201 -0.24746 -0.093521 0.44521 -0.044714 0.32429 -0.13014 -0.3915 -0.461 -0.070122 -0.35223 0.38686 -0.25869 0.47497 0.076472 0.0085433 -0.4047 0.66155 -0.23044 -0.021724 -0.021885 -0.00054206 0.0065346 -0.074982 -0.59198 -0.61204 -0.14 0.19463 -0.17722 -0.51057 0.40299 0.2675 -0.29331 -0.18907 -0.37621 -0.4179 0.54875 0.070255 0.80564 -0.3841 -0.42401 -0.41384 0.43875 -0.29252 -0.091183 0.22039 -0.18372 -0.41012 0.62847 0.21983 -0.079124 0.019266 0.85543 -0.13378 0.60141 0.67718 -0.33309 -0.2561 0.084727 0.10459 -0.25359 -0.12002 -0.38965 -0.2878 0.0036703 0.022321 -0.31591 -0.35608
in 0.068507 -0.023344 0.28271 -0.40215 0.077815 -0.027003 -3.7645 0.41708 0.058373 -0.067997 0.32045 0.093317 0.35446 0.24415 -0.22822 0.21088 0.092499 -0.0766 -0.0030272 0.65657 0.10773 -0.17828 -0.1082 0.37832 -0.141 0.10373 0.15094 -0.43425 0.00019809 -0.39078 -0.51362 0.09536 -0.42444 0.15611 -0.32383 -0.12708 0.1385 0.21015 -0.3378 -0.4188 0.13787 0.29742 -0.27689 0.04996 -0.54465 -0.20988 0.25044 -0.33203 -0.2728 0.14554 0.60364 0.65656 0.0074453 -0.058784 -0.064545 0.75666 0.087701 -0.1936 -0.34405 -0.1472 0.0067563 0.18505 0.19937 -0.29199 -0.23206 -0.061202 0.21897 0.61196 0.5289 -0.10914 -0.77609 0.44075 -0.63157 0.35396 -0.29959 -0.15911 0.34515 -0.4131 0.41821 0.036273 -0.28904 -1.3799 -0.26149 -0.38145 -0.11302 0.20644 0.19689 -0.16254 0.61176 0.15381 -0.53395 -0.48077 -0.024011 -0.094099 0.22243 -0.14617 -2.9577 0.32627 0.10761 0.25086 0.20389 0.043559 0.37386 0.26832 -0.22787 0.14908 0.14154 -0.10015 0.31386 -0.1703 -0.060314 0.44677 0.64932 -0.3216 -0.55059 0.34674 0.22071 -0.35157 0.57815 0.25799 -0.41677 -0.17724 0.00032002 -0.61324 0.36185 0.055766 -0.136 -0.11536 -0.18133 -0.063293 0.37101 0.41068 -0.45675 0.0019741 0.052907 0.077341 0.047259 0.35521 0.94395 0.44756 -0.23055 -0.29585 -0.24687 0.3778 -0.070669 0.18335 -0.20146 -0.2345 0.60466 0.48813 -0.074877 -0.37743 0.13481 0.10849 -0.016328 -0.56793 0.096551 -0.28974 -0.85841 0.020689 0.55518 -0.20981 0.2382 -0.20757 -0.4081 0.10346 -0.027219 0.23233 0.047661 -0.026813 0.042456 -0.098405 0.40697 0.18637 -0.021596 0.38216 0.033878 -0.2535 -0.29586 -0.019435 -0.73558 -0.2914 -0.50521 -0.47852 -0.22671 -0.26419 -0.11708 0.16524 0.27825 -0.14631 0.051184 -0.009314 0.18186 -0.19979 0.13183 -0.11793 0.27146 0.19013 0.36612 -0.12877 -0.12857 0.094955 0.028475 -0.062946 0.25311 0.15169 0.15963 -0.22283 0.22304 -0.13993 0.23218 0.039904 0.046954 0.3138 -0.26845 -0.26303 0.14821 0.42341 0.34001 0.60787 -0.28699 -0.056269 0.11356 0.029713 -3.479 0.29802 0.03178 -0.035681 0.17751 0.16752 -0.2961 0.044736 -0.036076 0.30142 -0.34389 0.27084 -0.37026 0.2625 -0.47872 -0.0061819 0.055592 -0.061268 0.042886 0.1868 -0.12602 -0.078149 0.33139 -0.26079 -0.25363 0.40634 -0.34571 0.034084 0.1397 -0.1017 -0.11649 -0.19904 -0.027695 -0.31638 -0.038923 0.66143 0.34892 -0.18563 -0.12017 -0.42968 0.56684 -0.46318 0.010384 -0.16257 0.57057 -0.048416 -0.56498 -0.40066 0.17318 0.26049 0.45737 -0.51844 -0.46726 0.012543 -0.3206 0.068685 0.55413 -0.086315 -0.21519 0.66634 0.017061 -0.2999 -0.19917 0.17682 0.15799 0.15006 0.095986 -0.67037 0.59937 -0.14699 0.11697 -0.35628 0.11224 -0.23447 0.4055 -0.28067
" -0.048032 -0.6914 -0.21957 0.089568 0.28472 -1.0531 -3.4121 0.02696 -0.20037 -0.53091 0.97056 -0.034644 -0.10033 -0.2071 -0.42032 0.16462 0.059077 -0.61837 0.23765 0.22807 -0.083801 -0.11536 0.27572 0.26371 -0.17288 0.0084245 -0.51929 -0.36559 0.14597 -0.81487 -0.51025 0.14477 0.46289 -0.25076 0.70546 0.57385 -0.44765 -0.090041 0.16833 0.38911 0.24072 -0.013165 0.074562 0.34116 0.34232 -0.28445 -0.13614 0.070661 -0.6707 0.19258 -0.55693 0.4442 -0.40277 0.04553 -0.010283 -0.040729 0.042784 0.85237 0.46238 0.31426 0.36427 -0.43114 -0.37496 -0.16093 -0.32705 0.53713 -0.25947 0.096877 0.10915 -0.085802 -0.39206 -0.40433 0.25685 -0.53044 -0.52574 -0.34065 -0.25792 0.30916 0.15165 -0.14527 0.040906 -1.0451 3.0427e-05 -0.10925 -0.22796 0.58295 0.17161 -0.50492 0.046715 -0.2565 -0.8094 0.12377 -0.17735 0.064325 -0.10278 0.20066 -2.6094 -0.13329 0.52934 -0.2907 0.039797 0.411 -0.28274 0.14114 -0.149 0.29174 -0.47222 0.27153 0.33043 -0.8398 -0.21368 0.068345 -0.41806 -0.1394 -0.29861 0.3712 0.30367 -0.16679 0.43494 0.39441 0.23276 -0.56044 0.23202 -0.050038 0.025742 -0.037166 0.31038 -0.37319 -0.071117 -0.16484 -0.034022 0.29113 0.41152 -0.04297 0.19572 0.18262 0.086992 0.38578 -0.80169 1.1235 -0.19665 0.252 0.51106 0.50104 0.30746 0.22131 1.0419 -0.12934 0.48314 -0.1097 -0.085398 0.057882 0.056915 -0.19651 0.13835 0.76558 -0.7776 0.14955 -0.0085004 0.10597 0.098488 -0.28773 -0.37583 -0.0099517 -0.49475 -0.027932 -0.15144 0.12913 0.16105 -0.059968 -0.21213 0.27882 0.75464 0.015144 0.13686 -0.18702 0.60299 -0.045254 -0.20525 0.15743 -0.46815 0.048959 0.3447 -0.37844 0.34106 -0.68152 0.11599 -0.15878 -0.044058 -0.18173 0.31114 -0.93244 0.25892 0.2941 -0.48729 0.11488 0.20706 0.71376 -0.0026516 -0.32355 -0.80349 0.32074 -0.10306 -0.038874 0.20804 0.069746 0.10707 0.13026 0.92798 -1.0789 0.59913 0.054721 -0.20213 0.22438 0.18911 -0.44685 -0.2894 -0.051251 -0.18365 0.15081 -0.59379 -0.029135 -0.20623 0.26559 -3.4438 0.65238 -0.68772 0.41854 -0.33688 0.20371 -0.48257 0.3191 0.050891 -0.13833 -0.40396 -0.25854 -0.082192 0.093764 -0.083204 -0.39219 0.14538 -0.5384 -0.081043 0.40279 -0.36503 0.50993 -0.4367 -0.21211 -0.41628 -0.41527 -0.52174 -0.527 -0.51573 0.046207 0.0099332 -0.37437 0.15547 0.14391 0.37315 0.47392 -0.16113 -0.070403 -0.14696 0.22995 -0.24619 0.14984 1.0486 -0.29904 0.11577 -0.48089 -0.24363 -0.13805 -0.67828 -0.080053 0.2871 0.61649 -0.25851 0.25048 0.0051335 0.040719 0.4885 -0.32601 -0.082974 0.82039 -0.054578 0.25842 0.47645 -0.3331 -0.33535 -0.084167 0.19699 0.26016 -0.59807 0.4776 0.48911 -0.33895 -0.43047 -0.087665 -0.22918 -0.0044677
is 0.11396 0.34503 -0.055064 -0.20192 0.20848 -0.09699 -4.0236 0.95046 -0.060803 -0.8326 0.39128 0.080882 0.19049 -0.043595 -0.39001 -0.34955 0.11262 -0.14287 -0.032761 0.067908 0.17553 0.31537 0.28348 0.10421 0.35078 -0.032335 -0.36486 -0.34773 -0.20653 -0.0396 -0.23032 -0.077951 0.23275 -0.30656 -0.42728 0.11155 0.56584 0.18156 0.24105 0.26077 0.10482 -0.17409 -0.27386 -0.19085 0.001336 0.15198 -0.085442 -0.45299 -0.25952 -0.10323 0.16033 0.84934 -0.14611 -0.097733 -0.10756 -0.64231 -0.086497 0.19817 -0.145 0.081023 -0.51695 -0.054831 -0.011848 0.14594 0.27602 0.2617 0.47357 0.080774 0.024029 -0.20884 -0.19015 0.13206 -0.3157 -0.38179 -0.099757 -0.47159 0.38781 -0.15529 0.14584 0.061407 -0.34411 -1.2493 -0.55997 -0.51856 0.25404 0.23224 -0.26082 -0.20301 0.091036 -0.15094 0.054542 0.12856 -0.25977 0.57906 0.43496 0.11506 -2.4913 -0.074039 -0.22596 -0.078059 0.37 0.14267 0.29842 0.25159 0.18929 -0.21655 -0.06477 -0.31406 -0.22593 -0.035533 -0.006801 -0.19788 -0.3362 0.11342 -0.26645 0.2006 0.53312 -0.17071 0.29388 -0.1544 -0.32386 -0.23815 -0.074312 -0.0023955 0.31235 0.023316 0.35249 -0.37121 -0.025591 0.11688 -0.1956 -0.037899 -0.059021 0.12694 0.015057 -0.059807 0.11488 0.1346 0.38488 -0.0070541 0.09581 0.26326 0.31792 -0.020803 -0.57065 0.2096 0.34243 -0.13416 0.15929 0.049954 -0.31797 0.092282 -0.36187 -0.15156 0.20105 -0.49372 -0.24939 0.52548 -0.067412 0.0029721 0.48416 -0.29553 -0.1868 0.057142 -0.038733 0.11757 -0.13336 0.2471 0.72767 -0.3194 0.43514 -0.15875 0.20184 0.093158 -0.19095 0.73837 0.3119 -0.18697 0.11706 -0.19537 0.04848 -0.13815 0.083468 0.10713 0.22465 -0.65526 0.51878 0.24839 0.13339 -0.0076668 -0.21111 0.33498 0.42292 -0.19456 0.565 0.45421 0.16063 -0.25718 0.43721 -0.42303 0.097476 -0.015056 0.064036 -0.087359 -0.0071586 0.38121 0.33028 0.29676 0.23904 -0.14327 -0.1011 -0.16298 0.15252 0.066246 0.087008 0.36414 0.23292 -0.54527 -0.17597 -0.57629 -0.27825 -0.21048 0.31815 -0.11145 -3.3707 -0.57578 -0.31548 -0.21493 0.06938 -0.29779 -0.12619 0.40149 -0.1364 -0.60166 0.013699 -0.14001 0.50957 0.034518 -0.082044 -0.15225 0.054835 -0.30277 -0.22071 0.22622 0.26695 -0.032464 0.055506 -0.071883 -0.12037 0.21999 -0.11196 -0.0095203 -0.054642 0.12505 0.38358 0.027555 0.052245 -0.014396 0.13378 0.1317 0.14486 -0.20949 -0.28146 0.063763 0.098775 0.12514 -0.76178 -0.12258 0.21425 0.021548 0.40072 -0.18433 -0.17931 0.079434 -0.62864 0.16945 0.15069 0.25897 -0.31789 -0.29582 0.81134 -0.45501 -0.2029 0.068279 -0.06824 0.29112 0.32883 0.20016 -0.23233 -0.59309 -0.085202 -0.018587 -0.25809 0.21739 0.21592 0.081633 0.12224 -0.37247 0.2879 -0.18029
for -0.23909 -0.64189 -0.58322 -0.54743 0.42386 -0.11755 -4.2169 0.28685 -0.30766 -0.6742 0.03867 0.23048 -0.15794 0.18097 -0.36886 -0.062423 -1.0884 -0.017109 0.43104 0.46903 -0.042397 0.40193 -0.32197 -0.15579 -0.33404 -0.30089 -0.0014094 -0.26075 0.35523 0.022844 -0.55828 0.041856 0.35331 0.077003 0.74886 0.055289 -0.04681 -0.46116 0.017485 0.35907 -0.045523 0.15166 0.12532 -0.071976 -0.25125 -0.1633 0.14621 0.1522 -0.061195 0.055225 -0.20055 0.19768 0.089176 -0.24682 0.39557 -0.32195 -0.22106 0.25966 0.22295 -0.40763 -0.73898 -0.18336 0.35442 0.02436 0.0032621 -0.0059417 0.072444 0.14596 0.18363 -0.36354 -0.042161 0.097704 -0.24172 -0.30751 -0.28351 -0.24189 0.21317 0.039802 -0.128 -0.53251 0.14721 -0.88563 -0.26101 -0.23944 0.06401 0.062381 0.097086 -0.013705 0.21058 0.27487 0.20148 -0.73965 0.12504 -0.27577 0.36771 -0.50487 -2.8465 -0.67549 -0.60059 0.046393 0.23611 0.094867 0.73862 -0.273 -0.11245 0.12585 0.41927 0.018334 0.56802 0.062212 -0.79614 -0.14668 0.25178 0.32088 -0.25628 -0.28704 -0.10473 -0.071085 -0.17309 0.12837 -0.51097 0.062379 0.0012732 -0.66104 0.40452 -0.33419 -0.56605 -0.20469 0.50518 -0.31826 -0.13561 -0.26213 -0.33163 -0.6108 -0.11304 -0.018907 -0.19176 -0.21306 0.36105 -0.031309 0.077629 0.6058 -0.34148 -0.13582 -0.082753 -0.071951 0.26333 -0.33163 0.43879 0.078885 -0.026479 -0.18038 0.099418 -0.065447 0.44726 -0.62344 0.05556 0.076232 -0.44274 -0.22871 0.37193 -0.3896 0.11575 -0.093648 0.25593 -0.34525 0.027353 0.086035 0.029737 -0.27269 0.0024322 0.24449 0.11212 -0.19905 -0.44804 0.62767 -0.080553 -0.50877 0.50385 0.42253 0.14679 -0.091549 -0.51924 0.099334 0.20448 0.41728 -0.11322 0.070377 0.34712 0.31102 0.077341 -0.034178 0.34331 0.36052 0.14237 -0.68782 -0.11412 0.13119 -0.20565 -0.15498 -0.26617 -0.58145 0.031516 0.05587 -0.21804 -0.15787 0.44752 -0.57015 0.44162 -0.26597 -0.63425 -0.019741 -0.39778 -0.089568 -0.4413 0.0096704 -0.033922 -0.19073 -0.12692 0.32455 -0.039806 0.26027 -0.3225 -0.24355 -3.1913 0.25131 -0.44537 0.26591 -0.0067639 -0.14244 0.16771 0.65056 -0.36999 -0.05739 -0.20538 0.17873 -0.095203 -0.13814 -0.11228 -0.23044 -0.2295 -0.23337 0.19978 0.36084 -0.23445 -0.090508 0.15121 -0.22822 -0.63549 -0.15704 0.1076 -0.09609 0.08585 -0.015386 -0.22488 0.19139 0.26345 -0.28821 0.44005 0.080017 0.50119 -0.35549 -0.23027 0.14742 0.38131 0.25844 -0.12763 0.34826 0.27506 0.48624 0.27677 0.32541 -0.028055 0.46142 0.57238 0.1628 0.18626 -0.2866 0.59975 -0.16204 0.095396 -0.096285 -0.10466 0.15689 0.35278 0.048956 0.15755 0.36086 -0.060806 -0.29091 0.24121 -0.26148 0.05192 0.035589 -0.1557 0.29341 -0.090526 -0.27433 0.019076 0.12692
: 0.18524 -0.37887 0.26603 -0.59301 0.65507 -0.088332 -2.511 0.77913 -0.60289 -0.42877 0.16887 0.98559 -0.49095 0.091008 -0.15037 -0.72456 -0.26129 0.52288 -0.048313 -0.65295 0.21471 0.38799 -0.10577 -0.29741 0.28791 -0.078379 0.13846 0.0475 0.27871 0.48087 0.68015 0.34165 0.53321 -0.13269 -0.094117 -0.27177 -0.26199 -0.96608 -0.37116 0.60954 0.28366 0.28325 -0.25089 0.57108 0.074725 0.2098 0.20687 -0.043224 -1.1696 -0.33808 0.34436 -0.036202 -0.85502 0.18101 -0.44146 1.1333 0.44425 0.070052 -0.028137 0.15389 -0.44741 -0.76146 0.025769 0.57776 -0.17777 -0.14727 -0.08749 -0.084997 -0.4259 0.16521 -0.60322 -0.22595 0.25026 -0.35568 0.054064 0.46647 -0.34279 0.44436 0.19123 0.017965 -0.45413 -0.33474 0.4419 0.16496 -0.16889 -0.16248 0.19866 -0.20442 -0.52295 -0.069982 0.038043 -0.55943 0.49931 0.18783 0.41319 -0.16213 -2.6708 -0.21528 0.33097 0.17506 -0.27152 0.17503 0.061198 -0.048763 0.17543 0.2748 0.36292 0.1034 0.06429 0.094507 -0.1908 0.036522 -0.67388 0.042702 -0.7629 0.061249 0.2339 0.63169 0.51758 -0.07616 0.17195 -0.08313 0.12372 -0.082896 0.59135 -0.15591 0.0020922 -0.036031 -0.017047 -0.32047 0.23856 0.25725 -0.44901 0.20282 -0.04172 -0.46867 -0.12855 0.10297 -0.82072 1.3329 -0.42935 0.58551 -0.28192 -0.83001 0.18132 -0.27045 0.50375 0.15416 0.33177 -0.078226 0.17272 -0.17693 0.65241 -0.43936 -0.38217 -0.028491 -0.022308 0.22461 0.16737 -0.42944 -0.042793 -0.51515 0.30534 0.27292 -0.18177 0.063515 -0.60543 0.11819 0.1424 0.013873 -0.48959 0.24334 0.3911 -0.40884 -5.6906e-05 -0.5198 -0.20315 0.21492 0.03981 -0.38968 -1.032 0.64643 0.4533 0.29474 0.13341 0.1104 -0.11518 -0.75806 -0.6809 -0.080872 0.64041 -0.075078 0.84564 0.082781 0.47554 0.42379 -0.18515 0.65767 0.26898 0.19334 -0.14757 0.62914 0.45802 -0.36344 -0.0028786 -1.2593 -0.41381 0.16725 0.16111 -0.12891 0.35258 -0.15861 -0.15312 -0.36222 -0.31103 0.49892 0.79551 -0.37941 0.68283 0.02999 -0.25482 0.26507 -0.16327 0.1135 -3.768 0.31203 0.11916 0.6706 -0.58409 0.074425 0.049166 -0.065358 0.67052 0.42993 0.20407 -0.6565 0.37971 -0.037463 -0.075834 -0.44218 -0.2961 -0.1381 -0.54767 0.080978 0.57841 0.030677 0.34813 -0.28161 0.42822 -0.017404 0.29732 0.38627 -0.42612 0.7725 0.39136 0.2569 -0.38934 0.35734 0.14599 0.065006 -0.13783 0.14222 -0.040797 -0.20202 0.1349 -0.42088 0.45794 0.071163 -0.26991 1.0147 0.50058 0.45612 -0.77709 0.86904 -0.032782 -0.11692 0.30304 -0.51648 0.63102 -0.076382 -0.15936 -0.50472 -0.74426 -0.21099 -0.089563 -0.091409 -0.6027 0.12475 -0.15683 -0.62756 0.77533 1.2472 -0.9117 -0.12674 0.39212 -0.28231 -0.87358 -0.1776 -0.24893 -0.3163
i -0.043504 -0.18484 -0.14613 -0.21751 0.2025 0.044053 -4.2823 -0.034931 0.10337 -0.68931 0.078928 -0.19808 0.10099 -0.21902 0.23785 -0.18958 -0.076054 0.080842 0.30931 -0.038854 0.55597 -0.2242 0.3882 0.15026 -0.29439 -0.56333 -0.4194 -0.27953 0.15539 -0.062982 -0.069327 -0.039159 0.40351 -0.021251 0.3225 -0.10849 -0.34141 -0.12177 0.29162 0.089426 0.020347 0.34924 -0.19546 -0.26214 -0.20894 0.010233 -0.072328 -0.42755 -0.038977 -0.31352 -0.10783 -0.3255 0.17601 -0.32614 -0.16987 -0.057348 0.093224 -0.30891 0.46086 0.10613 0.19984 -0.17867 0.127 -0.29539 0.020387 0.42015 -0.098038 -0.11268 -0.37727 -1.055 -0.23141 -0.20308 0.4013 -0.069317 0.25465 -0.33846 0.6358 -0.064021 0.31587 -0.10926 0.29826 -0.6937 -0.52955 -0.14204 -0.12114 -0.1731 0.16079 -0.052081 0.092534 0.020896 0.21948 -0.081917 -0.096628 0.17746 -0.45614 -0.15351 -1.8311 -0.060287 0.066335 0.2843 -0.073177 -0.25603 -0.052033 -0.10733 -0.026687 -0.3235 0.0011775 -0.14627 -0.074643 -0.17963 0.16691 0.00028942 -0.1076 0.40056 -0.20383 1.0869 0.10362 -0.37086 0.24985 0.20921 0.1671 -0.049194 0.15099 0.30347 0.26684 -0.35441 -0.13476 0.16374 -0.08326 -0.043688 -0.31049 -0.0086838 -0.12193 -0.35278 0.16532 -0.067317 0.52239 -0.18702 0.10217 0.8081 0.11712 0.32835 0.12259 -0.24434 0.43636 -0.4618 0.26365 -0.27708 0.26264 0.026084 0.2331 -0.037621 0.01235 -0.36741 -0.061117 0.033803 -0.29691 0.065067 -0.27793 0.066063 0.28317 0.26602 -0.3253 -0.42407 0.12035 0.46093 0.37397 -0.24189 0.23685 -0.50295 -0.2154 0.11192 -0.12174 -0.094199 -0.27255 0.3302 -0.1564 -0.056053 -0.13629 0.058632 0.045838 0.55262 -0.12814 0.078153 -0.30575 -0.25255 0.22152 -0.38837 -0.0060042 0.0013889 0.39918 -0.28278 0.34967 -0.15238 0.044938 0.10729 0.25289 -0.40761 0.2823 -0.31936 0.33705 -0.26131 -0.11741 0.38829 -0.23005 -0.0044883 -0.30692 -0.37239 0.77491 0.33351 0.54766 -0.15144 -0.0043475 -0.43681 -0.051382 0.13585 -0.17978 0.13712 0.055 -0.10995 0.017427 -0.10725 -0.11014 -0.18704 -3.5946 0.11965 0.4042 -0.11872 0.12854 -0.045573 -0.58077 0.12805 0.18949 0.060238 -0.31284 -0.06668 -0.17352 0.49526 -0.31845 0.22007 -0.30396 0.1529 -1.0693 0.49687 0.1404 0.26403 -0.30594 0.15625 -0.045417 0.40266 0.069006 0.077115 0.032278 0.010174 0.46835 -0.075905 0.45815 -0.089478 0.034056 0.075866 -0.51797 -0.44302 0.026851 -0.13001 -0.035663 -0.35556 0.019674 -0.10015 0.077083 -0.46469 -0.060102 -0.31173 -0.24843 -0.30887 0.051811 0.098181 0.35691 0.2406 0.36622 0.046849 1.1107 -0.28632 0.49063 0.40494 -0.0041022 0.19997 -0.02471 0.21743 -0.10444 0.17242 -0.15222 -0.10119 -0.20508 -0.37518 0.21623 0.26467 -0.081656 0.1008 0.1068 0.089065
) 0.26667 -0.23015 -0.01352 0.10943 0.71197 -0.090025 -2.5768 0.88659 0.21025 -0.31948 0.58588 0.67079 -0.12653 0.31632 0.12701 0.14976 -0.49463 0.22453 -0.043073 -0.028317 0.50194 0.28411 0.15523 0.078399 0.24434 -0.33035 0.41031 0.3699 -0.61482 -0.074343 -0.62738 -0.010309 -0.95638 -0.32164 0.074342 -0.2452 -0.41428 -0.048367 -0.37011 0.034152 0.75572 -0.26022 -0.32155 -0.022733 0.56022 -0.14057 0.6231 -0.12515 0.46278 0.090383 -0.24517 -0.20448 -0.44479 -0.18852 0.075946 -0.72078 0.35465 0.38543 -0.26633 -0.45355 0.45138 -0.093898 0.02914 0.52585 -0.46625 0.006238 0.078032 0.17684 -0.25892 0.28059 -0.44845 0.19041 0.36967 -0.21003 0.37713 -0.45568 -0.47609 -0.10363 -0.44441 -0.52894 0.68394 -0.66284 0.65255 -0.18063 0.30286 0.088442 -0.022566 -0.12702 -0.19133 0.63179 -0.35099 -0.10213 0.064386 -0.19172 0.27571 0.18844 -2.5759 0.53847 -0.20514 -0.13072 -0.42337 -0.1293 -0.014951 0.082325 0.11717 -0.36795 -0.33252 0.30988 0.23404 0.023456 -0.23246 0.05062 -0.3451 -0.48295 0.18911 0.37081 0.79475 -0.25726 -0.31557 0.88027 0.281 -0.63176 -0.30507 0.17949 -0.030283 0.63066 -0.049994 -0.20822 -0.38529 0.50226 -0.1818 0.28103 -0.46593 0.0099929 0.11186 0.75747 0.33852 -0.55423 -0.19801 1.3019 -0.39106 0.091197 -0.026081 -0.58972 0.083129 -0.68824 0.23169 0.17169 0.045611 -0.16345 -0.73675 -0.6217 0.35162 0.099628 -0.065537 -0.10064 -0.72815 0.011016 0.31963 -0.47494 -0.30881 0.055299 -0.40056 -0.88493 0.40312 -0.17932 -0.053653 -0.16629 -0.90349 -0.1969 -0.2281 -0.59799 -0.21185 -0.5029 0.0038485 0.38916 0.061698 -0.078992 -0.42085 -0.33722 -0.53146 0.076515 -0.0086711 0.1357 -0.19069 0.011674 -0.032666 0.26495 -0.65841 0.36407 -0.25632 -0.57774 0.28258 0.28344 0.018689 -0.59872 -0.22207 0.20856 -0.47788 -0.64584 -0.10071 -0.40016 0.37631 -0.082383 0.31632 0.56173 0.19774 0.47756 -0.12815 -0.16981 -0.19379 0.024901 -0.24717 0.10622 -0.26694 0.20169 -0.22079 -0.56174 -0.37343 -0.22815 0.44388 0.0026693 -0.071211 0.24887 -3.732 0.60711 0.18625 -0.48488 -0.063947 0.18564 -0.018897 -0.073706 0.10377 0.3413 0.38021 -0.23779 0.77126 -0.24749 -0.58308 -0.22443 0.14134 -0.50424 0.037867 0.17546 0.045416 0.07755 0.63273 -0.22014 -0.099165 0.068551 -0.2086 -0.049241 -0.33025 0.62432 -0.59691 -0.0563 -0.47216 -0.0045292 -0.08314 -0.031489 -0.2116 0.27204 -0.31475 0.24339 0.38134 0.11148 0.075824 0.22624 -0.055018 0.41179 -0.16176 0.065073 -0.40046 -0.21377 -0.04112 0.48922 0.17673 -0.30677 0.41533 0.19262 0.17683 -0.28761 -0.53603 0.39015 0.024465 -0.15745 0.88456 0.41616 -0.10685 -0.16308 0.02115 0.083233 -0.77612 -0.12464 0.13537 0.19015 0.1245 -0.31627 -0.086 -0.70107
that 0.15805 -0.26233 0.17418 -0.16879 0.13249 0.0012131 -4.7762 0.29278 0.064338 -0.57404 0.0093862 -0.1188 0.027011 0.046369 -0.14497 -0.13829 -0.11145 -0.38801 0.18732 0.16518 0.32432 -0.3162 0.26395 0.11526 -0.13099 -0.25655 -0.45234 -0.25676 0.10703 -0.15271 -0.034337 0.21461 0.074758 -0.027414 0.026487 0.1582 0.41544 -0.2061 0.34509 -0.20208 -0.069525 0.19557 0.16252 -0.5484 0.012072 -0.084814 -0.22903 -0.49882 -0.35563 0.25246 -0.22043 -0.043004 -0.063622 -0.10204 0.063921 -0.45682 0.023694 -0.014695 -0.0066572 0.13108 0.25108 -0.017136 0.37491 -0.0026861 -0.090906 0.43093 0.22089 0.1143 0.36035 -0.29699 -0.063874 0.41058 0.288 -0.0084504 0.089663 -0.091968 0.51278 0.067225 0.15952 -0.095744 -0.030662 -1.1244 -0.69442 -0.2916 0.21185 -0.13466 -0.049059 -0.035291 0.39259 -0.45495 -0.13256 0.10167 -0.03473 0.058264 0.25017 -0.3245 -2.6218 -0.17705 0.14534 -0.13486 0.18264 0.6143 0.2232 -0.01462 -0.02123 -0.050849 0.077923 -0.27431 -0.037998 -0.0010185 0.18766 -0.161 -0.19281 0.09685 -0.23247 0.14421 0.046675 -0.40389 0.070322 0.0554 -0.055992 -0.30379 0.11034 -0.059317 0.0115 -0.25714 0.3384 -0.25285 -0.21051 0.24993 -0.10559 -0.25626 -0.15801 0.010499 -0.050691 0.1028 0.039207 0.090988 0.16751 0.23153 0.097181 -0.020227 0.23843 0.026643 -0.11058 -0.026795 -0.089131 -0.26301 0.52955 -0.053293 -0.11529 0.080244 -0.21195 -0.48817 0.12773 -0.23775 -0.12838 -0.15058 -0.52733 -0.062478 0.28792 0.1104 -0.50092 -0.044995 -0.10616 0.0073671 -0.077167 -0.026344 0.31104 -0.32879 0.28037 0.0069101 -0.38143 0.062239 -0.23076 0.27866 -0.079068 -0.1258 -0.073944 -0.50021 0.21699 0.31619 -0.019891 -0.10223 -0.16547 -0.54121 0.12544 -0.1587 0.28673 0.041828 0.25419 -0.056333 -0.1053 -0.11093 0.37813 0.15853 0.086719 0.19178 0.32095 -0.23377 0.35128 -0.142 -0.32659 -0.12807 -0.15415 0.27225 -0.027 0.061682 0.52501 -0.35955 0.36374 -0.12214 -0.21645 -0.37055 0.10877 0.29179 -0.24575 -0.17361 -0.20279 0.055728 -0.11747 -0.51449 0.59558 -0.2133 -2.9855 0.46936 -0.22036 -0.13701 -0.050621 -0.18788 0.36484 -0.022135 0.11431 -0.10653 -0.25842 -0.32402 -0.029479 -0.3657 -0.066417 0.06741 -0.097227 -0.078551 -0.44374 0.33902 -0.20005 0.074003 -0.20768 0.028683 -0.20104 0.21462 -0.19482 -0.33149 -0.25056 0.25687 0.12435 0.1336 0.12242 -0.11787 0.074399 0.14078 0.066916 -0.035182 -0.083228 0.027568 0.019225 -0.083424 -0.19695 -0.23925 -0.18437 -0.07988 0.29771 -0.30586 -0.13049 -0.29603 0.16735 0.04944 0.024841 0.36674 0.073818 0.0014377 0.58095 0.29855 -0.17781 0.1284 -0.096951 -0.01067 0.16473 -0.17326 -0.23502 -0.077877 0.14973 0.0020913 -0.16267 -0.012839 0.20886 -0.22857 0.22602 -0.31724 0.23749 0.31161
( 0.22566 -0.37112 -0.21545 -0.01641 0.33053 -0.15235 -2.7064 0.93984 0.20524 0.14341 0.70853 0.50396 0.10787 -0.15714 0.28867 -0.084845 -0.37772 0.40769 -0.33547 -0.50082 0.51465 0.28739 0.24833 0.34617 0.029698 -0.61897 0.50856 0.20075 -0.57633 -0.35479 -0.58836 0.029269 -0.83585 -0.48034 0.079937 -0.607 -0.47937 -0.21791 -0.28979 0.055326 0.4014 0.027858 -0.28758 -0.25079 0.61711 0.062885 0.66242 0.35049 0.31549 0.36766 -0.059226 0.10647 -0.11032 -0.23799 0.19918 -0.5222 0.22848 0.20725 -0.12297 -0.64342 0.22021 -0.011356 -0.28359 0.37656 -0.019267 0.045466 0.43289 0.73138 -0.18747 0.61342 -0.45276 0.4998 0.67908 -0.0045247 0.7982 -0.24 -0.27308 -0.029924 -0.65473 -0.11705 0.47704 -0.97719 0.43286 -0.05048 -0.060766 -0.065755 -0.081354 -0.2338 -0.52166 0.44514 -0.33812 -0.11598 0.3125 -0.14082 0.2082 0.23779 -1.9048 0.24316 -0.23711 -0.20603 -0.39892 -0.223 0.3588 0.12751 -0.0073575 -0.23636 -0.61311 0.44607 0.29656 0.087632 -0.12924 -0.055266 -0.093017 0.013243 -0.15858 0.24048 0.74807 0.29853 -0.0027507 0.24778 0.26917 -0.47187 -0.30178 0.089973 0.19959 0.71246 -0.25001 -0.30476 -0.42302 0.30042 0.012942 0.11081 -0.10459 -0.024149 -0.04978 0.1043 0.52985 -0.20601 -0.23441 0.98773 -0.61963 0.17015 0.0577 -0.46928 0.22766 -0.66024 0.33885 0.2728 -0.19034 0.048107 -0.90716 -0.56721 0.024759 -0.045172 -0.40045 -0.45319 -0.40496 0.15477 -0.061433 0.01009 -0.47817 0.23192 -0.34431 -0.28817 0.0010155 -0.33073 -0.25678 0.024586 -0.13367 -0.22997 -0.48891 0.031355 -0.34323 0.2834 0.29578 0.52079 -0.078017 -0.72268 -0.56161 -0.25226 0.011491 -0.049597 -0.25661 -0.16012 0.029665 -0.081102 0.20477 0.10081 -0.54743 0.14727 0.11488 -0.16474 0.14744 0.28595 -0.15144 -0.073234 -0.11106 0.061497 -0.41449 -0.81262 0.016904 -0.12148 -0.0054016 -0.14345 0.36979 0.58625 0.31731 0.21677 0.10616 -0.56594 -0.3444 -0.16539 -0.27407 -0.39674 -0.2103 0.087907 -0.034684 -0.68675 -0.056865 0.18112 0.59311 0.26316 -0.2327 -0.035298 -4.0979 0.47216 -0.28693 -0.33641 -0.43626 0.46494 0.01585 -0.049069 0.033508 0.50443 0.46245 -0.32496 0.29819 -0.3999 -0.66735 -0.36449 -0.27742 -0.3471 -0.14502 0.35473 -0.14664 -0.24655 0.27225 -0.33168 0.086345 -0.093201 0.038639 0.21626 -0.60329 0.96447 -0.61508 -0.36709 -0.6391 0.1957 -0.098272 -0.001105 0.10694 -0.085983 0.34202 0.49881 0.43774 -0.1966 -0.13882 0.017656 -0.01865 0.48943 -0.40127 0.21374 -0.3822 -0.22486 -0.21586 0.428 0.69237 -0.39792 -0.10378 0.074862 0.25537 -0.43377 -0.67097 0.676 0.26108 -0.3603 0.67061 0.31876 0.13483 0.12858 0.25021 -0.22768 -0.64548 0.099261 0.081619 -0.2086 -0.33346 -0.37321 -0.12199 -0.83965
you -0.045315 -0.010389 -0.19798 0.0074069 0.13915 0.28315 -4.8578 0.059722 -0.041928 -0.67951 -0.22934 -0.037041 0.19498 -0.13721 -0.080921 -0.36824 -0.2795 -0.085557 0.35912 0.059352 0.54356 -0.22451 0.185 0.07815 0.16331 -0.089605 -0.46924 0.013166 -0.23992 0.04183 -0.13411 -0.055497 0.51085 -0.095635 0.0074226 -0.15482 -0.16071 -0.17246 0.040188 -0.12358 0.057126 0.27466 -0.26531 -0.69652 -0.10367 0.36027 -0.22818 -0.14271 0.31034 -0.063622 -0.32047 -0.21441 -0.0066035 -0.44397 -0.23058 -0.46539 0.13063 -0.33903 -0.27848 0.10887 0.23154 -0.11992 0.45113 -0.27517 0.24792 0.56239 -0.11223 0.069393 0.21719 -0.45379 0.072769 0.26735 0.12143 -0.12206 -0.41705 -0.040107 0.64978 0.24525 0.31934 0.12291 0.17259 -0.033497 -0.14209 0.1935 -0.087972 0.035018 0.28217 -0.10064 -0.34261 0.28151 -0.099521 -0.21059 -0.0066425 0.14989 0.04176 -0.79869 -2.4338 0.04226 0.47656 0.14805 -0.09508 0.19522 0.43368 -0.16548 -0.28798 -0.28266 0.16387 -0.4426 -0.42175 -0.11584 -0.019352 -0.3026 -0.095344 0.26175 -0.55522 0.076841 0.21394 -0.17809 0.007211 0.28537 0.010352 0.024934 0.44049 -0.17627 0.2039 -0.44226 0.062315 -0.038854 -0.14574 0.2271 -0.45789 0.11289 -0.084069 -0.049833 0.23436 0.015757 0.59109 -0.48919 -0.24474 0.90254 0.30238 0.17645 0.36994 -0.014467 -0.22783 0.018348 -0.14856 -0.31404 0.1153 -0.10809 -0.027889 0.11631 0.077681 -0.20062 0.18744 -0.042037 -0.10761 -0.027421 0.21262 0.003162 0.58733 -0.084987 -0.47666 0.075267 -0.29273 0.082457 0.078855 0.31808 0.41172 0.14907 -0.14365 0.019729 -0.24756 -0.34937 -0.29368 0.17052 0.16058 -0.27608 0.34404 -0.37101 0.285 -0.13341 -0.17254 -0.25566 -0.042631 -0.34874 0.45017 0.054868 0.31624 -0.29514 -0.16589 0.34528 -0.056808 -0.00018091 0.63327 -0.39434 0.46145 -0.050789 0.22207 -0.046614 0.31343 -0.0868 -0.12464 0.15644 -0.25294 -0.10938 -0.19215 -0.20576 0.38496 -0.24239 -0.027065 -0.44619 -0.018965 -0.17858 0.1412 0.043227 -0.074112 -0.084025 -0.046369 -0.13821 -0.076064 -0.04409 -0.091823 -0.19374 -3.0363 0.23397 -0.28761 -0.031891 0.1153 -0.16362 -0.11093 0.26248 0.10115 -0.0052696 -0.17305 -0.074938 -0.14486 -0.024029 -0.26933 -0.16745 -0.24481 -0.0043717 -0.64694 -0.081254 -0.048565 0.11387 -0.23756 0.43416 -0.087395 0.065356 -0.019127 -0.070495 -0.24685 -0.3798 0.1424 -0.30037 0.17801 -0.02579 -0.086309 -0.16668 -0.28964 -0.41512 0.16919 -0.33368 0.00691 -0.19671 -0.16635 -0.13223 0.33972 -0.09311 -0.26781 -0.35747 -0.47576 0.025746 0.16696 -0.11538 0.0097573 0.33078 0.45239 -0.27258 0.41012 -0.20411 -0.077906 0.26716 -0.22702 0.33231 -0.0090755 -0.047777 -0.27195 -0.13876 0.089044 -0.18412 -0.36055 -0.12008 0.1192 -0.10877 -0.19421 -0.41484 0.11124 -0.12042
it 0.39457 -0.013387 -0.23289 -0.1601 0.32788 -0.071888 -4.9166 0.42002 -0.070704 -0.72314 0.091783 -0.30671 0.26245 -0.092867 -0.2409 0.048326 -0.072396 -0.067508 0.21836 -0.040157 0.25487 -0.286 -0.0093754 -0.24727 0.10982 -0.13302 -0.23697 -0.012397 0.15094 0.067324 -0.29848 -0.071428 0.11688 -0.2442 -0.094349 0.2311 0.16316 -0.21772 0.1929 -0.20452 0.20977 0.071821 -0.19373 -0.030947 0.056555 0.10305 0.044956 -0.41205 -0.27989 -0.26539 -0.14482 0.27595 -0.24897 -0.12444 -0.12817 -0.5881 0.031092 -0.19695 -0.059683 0.022946 0.34043 -0.13274 0.10429 -0.034739 0.011724 0.242 0.24059 0.14266 0.18056 -0.19891 0.0040047 0.32522 -0.077831 -0.34488 -0.21437 0.12465 0.38722 0.061659 0.10701 0.19208 -0.44891 -0.61791 -0.33707 -0.13119 -0.091813 -0.09144 -0.094051 0.13404 -0.19336 0.029288 0.14759 0.027914 -0.14386 0.16088 0.12491 -0.063705 -2.1602 -0.24617 0.16771 -0.079031 0.10777 0.27368 0.27345 0.27381 -0.091462 -0.24853 0.26203 -0.214 0.008775 -0.29821 -0.19149 -0.064224 -0.099153 -0.12822 -0.31856 0.26011 0.42875 -0.3095 -0.015697 0.31237 -0.25497 -0.053742 0.27814 0.10271 -0.15525 -0.22801 -0.00011426 -0.3545 -0.016981 0.26014 -0.40949 -0.093622 -0.045268 0.19359 0.20905 0.012217 0.36235 0.1706 0.30244 0.50852 -0.056089 0.26853 0.41433 0.19774 -0.0077277 0.059937 0.49664 -0.28083 0.38949 0.27273 -0.064584 0.14594 -0.16866 -0.51417 0.41891 -0.34648 -0.14804 0.01946 -0.41698 -0.044667 0.27043 0.20731 -0.30694 -0.037941 0.14281 -0.02102 0.024401 0.12598 0.61952 -0.45826 -0.028592 -0.051178 -0.23245 -0.1378 -0.22968 0.17349 -0.18584 0.21256 -0.13043 -0.47431 0.069997 0.13364 0.18428 0.098638 -0.25771 -0.34397 0.13438 -0.25553 0.095159 -0.095461 0.18735 -0.43694 -0.095595 -0.21427 0.19406 -0.032257 -0.012231 -0.12799 0.19049 -0.34733 0.18906 -0.23075 -0.51525 0.12028 -0.027512 0.1711 0.19029 -0.0012909 0.47697 0.1228 0.093411 -0.20419 -0.19148 -0.24021 0.10563 0.057533 0.12664 -0.19644 -0.19929 -0.14172 -0.0019814 -0.5875 0.36457 -0.42278 -3.0764 0.30909 -0.064355 0.03457 0.32523 -0.54723 0.143 0.2029 -0.0016222 -0.32061 -0.046331 -7.4381e-05 -0.064936 0.13024 -0.17944 -0.049575 0.13376 0.060678 -0.68073 0.3987 0.13057 -0.069976 -0.010967 0.063051 -0.033454 0.007602 0.053216 -0.18879 0.0077993 -0.21944 0.24179 0.024485 0.032077 -0.027992 -0.46716 0.13913 0.08745 0.21441 -0.05296 -0.40107 0.0070542 0.1232 -0.29873 -0.11932 -0.074749 0.0039676 0.27828 0.032495 -0.23917 -0.26956 0.0065476 0.045396 0.28008 0.18561 -0.13325 -0.082449 1.0633 -0.36476 0.12634 -0.032615 -0.08159 -0.040808 -0.10173 -0.25261 -0.2811 -0.059487 -0.022828 -0.0058922 -0.22167 -0.13003 0.15824 0.04191 0.36091 -0.17451 -0.092674 0.20148
on 0.00060657 0.048631 0.48969 0.42777 -0.3861 -0.0084231 -3.6027 0.47811 0.047945 -0.31859 -0.21335 -0.51531 -0.17142 -0.20035 0.70538 -0.17186 -0.54713 0.68465 -0.040384 0.24141 0.53936 0.10057 -0.14953 -0.28165 -0.44468 -0.69436 -0.10518 -0.30014 0.12637 0.71193 -0.20152 -0.11507 0.053484 0.13611 0.0023964 0.24965 -0.26389 -0.64683 -0.16104 -0.37846 -0.20946 -0.10369 0.22179 -0.72445 -0.055569 -0.51117 -0.020982 0.14127 -0.39321 0.22062 0.082094 0.053219 -0.86973 -0.17208 0.043798 -0.05605 0.36899 -0.092699 0.19369 0.59429 -0.10439 0.52525 0.41624 0.15565 -0.19486 -0.46395 -0.16372 0.32242 0.30328 -0.10038 -0.31126 -0.091417 -0.43295 0.051531 0.059131 0.099654 0.29146 0.019551 -0.22547 -0.31254 -0.43268 -0.59699 0.25903 0.0061463 0.23724 0.17422 -0.62129 0.30664 0.11598 0.16893 0.26485 -0.023562 -0.28476 0.32007 0.33411 -0.79123 -2.5263 0.77887 -0.036362 -0.22488 0.21838 -0.18917 -0.17813 -0.12703 -0.09161 -0.25722 -0.23141 0.24344 -0.29977 -0.39411 -0.31091 -0.71663 0.71927 0.40314 -0.3998 -0.081807 0.48831 -0.26558 -0.2449 -0.72728 -0.65682 0.61916 -0.082432 -0.66695 -0.07183 -0.0060302 -0.14047 0.10774 -0.0294 0.43884 -0.10434 0.77235 0.26651 -0.15147 -0.15951 0.11666 0.033501 0.055742 -0.07072 0.81983 -0.094083 0.17576 0.32675 -0.05292 0.29963 0.062303 0.30784 -0.48853 0.87214 0.48469 0.15472 -0.47794 0.0035701 0.2851 0.45573 -0.49919 -0.32528 0.0050259 -0.10745 -0.3838 0.18128 0.31121 -0.16429 0.25904 -0.0020586 -0.42063 -0.06752 0.11249 -0.062841 0.0090842 -0.62864 -0.23783 0.16221 0.22003 -0.13259 -0.34341 -0.0038345 -0.031361 0.29267 0.011335 -0.16943 0.62525 0.0018924 0.3443 -0.077261 0.090077 -0.29513 -0.3287 0.02348 -0.12653 0.093243 -0.5803 -0.18007 -0.036697 -0.091138 0.080947 -0.13167 0.069933 -0.019786 -0.26451 0.095616 -0.0388 -0.23523 -0.11224 0.29692 -0.13358 -0.018443 -0.55351 -0.071414 0.30206 -0.040702 -0.099249 -0.62182 0.13056 0.37276 -0.51884 -0.72358 0.19346 -0.077715 0.22269 -0.43023 -0.13878 0.45398 0.40267 -3.799 0.29864 -0.10014 0.053288 0.27437 -0.18284 0.59567 0.59842 -0.32466 0.0035302 0.3772 -0.072068 -0.31471 -0.12439 -0.39985 -0.36131 -0.0094553 0.41125 -0.44127 0.13517 -0.18269 -0.47905 -0.056259 -0.23687 -0.20079 0.26212 0.18157 -0.35366 0.23476 0.12185 0.16606 0.3574 -0.45782 -0.35614 0.29046 -0.29956 0.26952 0.01434 -0.026618 0.31496 0.21012 0.103 -0.51883 -0.50328 0.14767 -0.14743 0.2322 0.029708 0.1736 0.39443 0.19012 0.059954 0.40225 -0.13333 0.43591 -0.19416 0.4944 -0.35507 -0.17199 -0.2775 0.026634 -0.16227 0.16202 0.37628 -0.19416 0.21528 0.27162 0.27112 -0.27549 0.28545 0.14925 -0.28046 -0.49446 0.13731 0.13866 0.314
- -0.27881 -0.40271 -0.18591 -0.27202 0.28409 0.25364 -2.5526 0.12913 -0.59799 -0.66368 -0.21798 1.1541 -0.28388 0.47289 0.23968 0.16269 -0.19289 0.59471 -0.4954 -0.57984 0.098453 0.50695 0.0076513 -0.096948 0.33477 0.073464 0.081899 -0.16084 0.3847 -0.0033582 -0.43921 -0.16995 0.73148 -0.43821 0.23778 -0.20635 -0.69562 0.81194 0.28341 -0.069185 -0.2758 0.31212 -0.54979 -0.25831 0.43145 -0.51619 -0.051051 -0.58811 0.1407 -0.73657 -0.56138 -0.33934 -0.35815 0.75992 -0.028904 -0.42664 0.09859 0.78329 -0.036797 -0.74718 0.42716 -0.17777 -0.22688 0.06514 -0.1778 -0.065114 0.22365 0.3185 0.041531 0.84846 -0.74444 0.18511 -0.33613 -0.252 -0.48548 -0.29405 0.001448 0.4855 -0.59234 0.32173 0.92677 -0.65704 -0.015583 0.38582 -0.15485 0.42602 0.84531 0.16892 0.041489 0.3778 -0.7439 -0.10633 0.19555 -0.26168 -0.34556 -0.0022175 -2.2717 0.21014 -0.21056 0.17363 -0.78818 0.0061095 0.058268 -0.44657 -0.054329 -0.48545 -0.16541 0.91224 -0.73494 -0.037926 -0.44599 -0.83551 -0.21933 -0.10028 -0.24455 -0.13427 0.3637 0.60357 0.19547 -0.22274 -0.53428 -0.4656 0.091585 0.24125 0.25163 -0.13095 -0.073739 0.62393 -0.14401 -0.55367 -0.50398 0.08876 -0.33294 0.20396 0.59646 -0.80374 0.3395 -0.16926 -0.44729 1.0446 -0.12029 -0.067893 -0.14972 -0.29282 -0.27511 -0.21115 0.44957 -0.32285 0.29852 -0.32795 0.23129 -0.65126 -0.16774 -0.12425 -0.35081 -0.32512 0.70651 -0.15158 0.25328 -0.65039 -0.12799 0.72675 -0.30144 -0.38425 0.39036 -0.046291 0.010203 -0.40669 0.062884 0.11154 -0.53525 -0.30577 -0.051006 0.32127 0.22955 -0.45942 0.10572 -0.35493 0.4441 0.30738 -0.35036 -0.71524 0.10817 -0.14946 0.57782 0.10566 0.44825 0.47138 -0.048961 -0.4194 -0.25798 -0.061018 0.39211 -0.82027 -0.36804 -0.031183 -0.10098 0.071381 -0.12357 -0.33102 -0.32745 -0.36051 0.24736 0.17 0.017463 -0.32852 0.41652 -0.058722 0.22584 0.64524 -0.3729 -0.4406 -0.17576 0.27024 0.19166 0.096023 0.15516 -0.23524 -0.37527 -0.20913 -0.18731 -0.046447 0.17133 0.095358 -4.1563 0.3794 0.12585 -0.055807 0.25315 -0.099114 -0.68619 0.28612 0.3537 0.75654 0.52138 0.28431 -0.26772 -0.16692 0.28497 -0.62988 0.48406 0.20377 -0.11219 0.65251 0.011257 0.056178 0.87677 0.055248 -0.04219 -0.45015 -0.33092 0.28266 -0.15198 0.0058738 -0.067593 -0.20925 0.37602 -0.40575 0.44603 0.14612 -0.10846 0.055436 -0.22304 -0.2564 -0.086234 0.32539 0.23037 -0.47501 -0.20469 0.5957 -0.1538 0.14353 -0.55308 0.1551 -0.26415 -0.057782 0.55282 -0.41416 0.14159 -0.50983 0.28156 -0.70852 0.091054 0.45901 -0.43372 0.15699 0.48727 0.21601 0.21845 0.039081 0.42541 0.24365 0.046829 -0.41852 0.77665 0.37893 -0.0075525 0.3788 0.25532 0.31518
with -0.5059 -0.5484 0.016064 -0.2958 -0.011176 -0.34265 -4.1862 0.27089 -0.12563 -0.87379 0.27529 -0.15768 -0.17751 0.14834 -0.04537 -0.36249 0.10482 -0.15905 -0.1397 0.27204 0.31603 -0.13946 -0.16967 0.30389 0.30068 -0.19355 0.43105 -0.11988 -0.66505 -0.58762 -0.54998 0.0379 0.20077 0.0048074 0.43618 -0.15079 -0.015927 -0.39375 -0.056553 -0.23345 0.19826 0.019487 0.0062278 -0.0058821 -0.45851 -0.25807 -0.23519 -0.099885 -0.070737 0.31516 -0.13265 -0.36219 -0.44268 -0.17912 -0.13292 0.29205 0.10254 0.25543 0.028781 -0.13865 -0.31925 0.41302 -0.17799 -0.12702 0.098795 -0.22646 -0.13554 0.42708 0.2249 -0.25956 0.2177 -0.12472 0.35958 -0.18779 -0.12109 -0.21025 0.40939 -0.11096 0.24674 -0.037028 0.50299 -0.35385 -0.12753 -0.70621 -0.049737 0.47613 -0.26004 -0.16942 -0.049991 -0.099358 -0.13827 -0.15574 0.11202 -0.21052 0.12917 -0.27971 -2.7805 0.067309 0.33469 0.31806 -0.20767 -0.075595 0.76232 0.074744 0.16423 0.28345 0.31875 0.23343 -0.019645 -0.33883 -0.41741 0.2719 0.14156 -0.071546 0.05937 0.15164 0.49894 0.24536 0.57224 0.07217 -0.33909 -0.46155 0.10924 0.16557 0.066051 0.026032 -0.43807 -0.42092 -0.28026 0.024885 0.27317 -0.07268 0.21461 -0.22214 0.13686 0.23838 -0.10008 0.037528 0.38336 0.57881 0.51052 0.027064 0.4099 0.2377 -0.17262 -0.053371 0.32491 -0.52348 0.63099 0.045803 0.10019 -0.32733 0.16484 -0.27404 -0.13815 -0.47169 0.65011 0.19194 -0.46875 -0.42014 -0.12024 -0.32632 -0.22722 -0.53484 0.097272 0.12605 -0.65362 0.51004 -0.029736 -0.77055 0.66478 -0.27126 -0.043972 0.38734 -0.6105 0.14618 -0.15378 0.25448 -0.089718 -0.059511 0.52333 0.013335 0.16047 -0.042656 0.59568 -0.12648 -0.092494 -0.050662 0.29705 -0.035139 -0.090927 0.17209 -0.62759 -0.096607 0.029426 0.25656 -0.12389 0.033436 -0.22577 0.11922 0.025829 0.14317 0.054745 0.054432 0.092395 0.15837 0.0014614 -0.43244 0.073078 -0.35045 0.42559 0.39222 -0.27383 -0.10273 0.1738 -0.15884 -0.16577 -0.18425 -0.069388 -0.10317 -0.0066675 -0.32161 0.83683 0.19015 -3.1891 0.0048553 -0.74334 -0.19918 -0.38536 0.067666 0.99252 -0.13086 0.26221 -0.46838 0.21489 -0.071302 0.19504 0.18528 -0.27303 -0.17462 -0.32885 0.072765 -0.36684 -0.018391 0.21927 0.1916 -0.16712 -0.1072 -0.18349 0.49746 -0.31909 -0.40279 0.075443 0.30968 -0.20805 -0.27289 -0.06213 -0.28192 -0.18649 0.055138 0.40393 -0.44964 0.21417 -0.33113 -0.051648 0.040814 -1.1851 0.28318 0.39281 0.13108 -0.24348 0.043826 -0.55095 -0.0068159 0.45369 -0.19404 -0.046271 0.31347 0.30931 -0.27376 0.55688 0.045063 0.075766 -0.080772 -0.081128 0.10789 0.22814 0.34769 -0.096499 -0.097801 -0.034727 -0.082055 -0.22632 -0.10362 -0.080037 0.011467 -0.44009 0.18481 0.19671 0.15902
's 0.48701 -0.26373 -0.30625 0.14684 0.20305 -0.13641 -3.5376 0.59238 0.21657 -1.4113 0.45433 -0.18999 -0.14233 -0.057544 0.28155 0.03845 0.028586 -0.86089 0.41667 0.34819 0.21377 0.58087 -0.24702 0.51 0.50661 -0.23957 0.17806 0.54862 0.23134 -0.054298 -0.53486 -0.083736 0.44716 0.38973 -0.40432 0.37497 0.13955 -0.18957 0.54597 0.10683 0.38629 0.71017 -0.38939 0.20367 -0.46713 0.26721 -0.034659 -0.45432 -0.33928 0.089071 -0.043008 -0.052437 -0.23199 0.45625 0.35782 -0.53746 0.46809 -0.016991 -0.070653 -0.12479 0.38164 -0.23071 0.285 -0.050425 -0.15865 -0.25061 -0.11798 0.28839 -0.23659 -0.34514 -0.035413 -0.007614 -0.035015 0.18375 -0.032038 0.20313 -0.16729 -0.28116 0.12404 -0.062742 -0.43001 -1.262 -0.014634 0.50482 0.19564 0.17001 -0.5567 -0.22441 -0.14947 0.023401 -0.024507 0.57469 -0.13886 0.5729 0.31057 -0.571 -2.6505 0.050886 -0.11547 0.2209 0.15658 0.10168 0.08743 -0.21201 -0.1603 -0.47995 0.14226 0.001826 -0.31614 0.12213 0.39684 -0.17566 -0.26033 0.0028528 0.47733 0.42485 0.62239 -0.24626 0.014094 -0.10082 -0.068528 -0.30543 -0.18433 0.075428 -0.41586 -0.092153 0.34312 -0.064475 -0.020434 0.37325 0.1841 -0.10141 0.63654 0.45146 -0.25159 0.075863 0.19757 0.16925 0.21083 0.71281 -0.13094 0.045419 -0.1229 0.22448 -0.44556 -0.14797 0.48223 0.53313 0.25805 0.52868 0.41984 -0.013775 0.28547 0.11016 -0.054602 -0.024846 0.2065 0.41616 0.17617 0.040138 -0.021772 0.67048 0.48753 -0.22979 -0.02835 0.046304 0.37668 0.36841 0.64236 -0.47382 0.30399 -0.01408 0.24209 0.069521 -0.26414 0.3 -0.13412 -0.38434 -0.10759 0.33883 -0.28648 -0.11417 -0.30706 -0.15357 -0.094113 -0.24475 -0.16492 -0.35616 0.87908 -0.25445 -0.33736 0.022537 0.28997 0.026072 0.15054 -0.078225 0.033351 -0.16199 0.24222 0.16272 -0.36739 -0.26328 -0.12752 -0.14154 -0.17469 0.15139 0.30171 0.028 0.30336 0.18149 0.61657 0.060228 -0.56509 -0.23359 -0.15642 -0.25543 -0.36196 -0.44089 -0.062338 0.4208 -1.0916 -0.063371 0.3232 -0.13708 -3.6246 0.02515 -0.16999 0.32467 -0.3114 -0.34351 -0.055419 0.10087 -0.18775 -0.033608 -0.24694 0.61727 -0.43925 0.4087 -0.15375 -0.048325 0.066688 0.57412 0.48568 1.1691 0.3158 -0.36801 0.31883 -0.41348 -0.47284 0.44173 -0.28296 -0.094316 -0.20525 0.52175 -0.33768 -0.25001 -0.64466 -0.29503 0.027672 0.081443 0.16492 0.29011 0.023963 0.22172 -0.35058 0.40468 -0.12926 -0.108 -0.12153 -0.14779 0.74448 -0.63726 -0.11065 0.38162 0.1341 0.57312 -0.25629 -0.040846 0.097929 0.11207 0.088692 -0.6654 0.37755 -0.19705 0.34302 0.046621 -0.46087 -0.0474 -0.16604 -0.32609 0.10109 -0.27122 -0.54986 -0.047373 0.036111 0.0075247 0.45702 -0.18971 0.13228 -0.057165
this 0.19223 0.28554 0.012629 -0.22884 0.94052 -0.36277 -4.3098 0.32853 -0.5995 -0.57731 0.21549 -0.043195 -0.07956 0.38541 0.094607 -0.5848 -0.28964 -0.046042 0.40985 0.34588 -0.0048096 -0.071439 -2.2594e-05 -0.067917 -0.18811 0.054618 -0.37226 0.58703 -0.24184 0.48544 -0.37553 0.32624 0.38935 0.013727 -0.39483 0.048044 0.54547 -0.07477 0.63441 -0.11595 0.21209 -0.20617 -0.29041 -0.23704 0.0041064 -0.099282 0.11893 -0.0052992 -0.11422 -0.090578 0.26124 0.83377 -0.11109 -0.32852 0.50166 -0.27973 0.2668 0.32922 0.23889 0.35908 0.14506 -0.091163 -0.23354 -0.24835 -0.24759 0.15085 -0.17141 -0.027307 -0.068021 -0.48302 0.002203 0.26988 -0.23518 -0.51465 -0.15938 0.023432 -0.0087119 0.58002 -0.13408 0.19655 -0.22713 -0.94542 -0.57163 -0.38737 -0.015954 -0.3288 0.40041 -0.2934 -0.030269 0.010723 0.0076222 0.14407 0.17482 0.17781 0.057853 0.026689 -2.6229 0.0094032 -0.39522 0.40077 -0.13103 -0.2146 0.086043 -0.25722 -0.060464 -0.46972 0.59448 -0.035612 -0.10569 -0.21069 -0.43147 -0.05884 -0.44765 -0.24497 -0.40401 0.51194 0.64938 0.099985 -0.1744 0.03064 0.037559 0.23209 0.39574 -0.010696 0.055671 -0.25155 0.7897 -0.28996 0.24901 -0.058746 0.24207 0.13273 -0.16214 -0.14803 0.66051 -0.091246 -0.28693 0.072021 0.31262 0.27137 0.17579 0.22921 0.079973 -0.10998 -0.34781 -0.16894 0.19642 -0.13928 0.65164 -0.13523 -0.26213 -0.043558 -0.04451 0.068151 0.054906 0.19557 -0.040857 -0.16588 -0.48647 -0.17558 0.8936 0.22782 0.011271 -0.16246 0.10318 0.33445 -0.42085 0.18572 0.36851 0.060591 -0.074437 -0.49661 -0.06022 -0.50823 -0.0014295 0.18659 -0.41602 0.018366 -0.194 -0.39097 0.50068 0.62149 0.13417 -0.12072 -0.16534 -0.24194 0.066933 -0.2801 0.25045 0.016149 -0.31262 0.19346 -0.23842 -0.47896 0.014039 0.070351 0.30635 -0.049576 0.66179 -0.068762 0.10011 0.040609 0.060913 0.12566 0.078004 -0.24195 0.018287 0.22682 0.49361 -0.13654 -0.0082092 0.26979 -0.088347 -0.027315 -0.32371 0.15109 -0.16104 0.12131 -0.28483 -0.07217 -0.007507 -0.23997 0.04046 -0.13108 -3.1533 -0.09568 -0.21382 -0.49716 0.22424 -0.09894 0.31707 -0.30451 0.25346 -0.40179 -0.39673 -0.024259 -0.31565 0.36771 -0.47916 -0.3794 -0.01212 0.098915 -0.88366 0.26876 -0.064834 -0.5536 0.086207 0.53916 0.215 0.36043 -0.072196 -0.52434 0.3381 0.0085474 0.5733 0.19011 -0.1348 -0.11589 -0.45145 -0.40165 -0.070097 -0.31569 -0.42273 0.23431 0.3653 -0.28453 -0.17764 0.4577 -0.081625 -0.10191 -0.05665 0.41565 -0.13205 -0.12703 -0.27067 -0.0062007 0.40564 0.11124 0.22112 -0.18344 0.88097 -0.025645 -0.35957 0.088658 0.10021 -0.24741 0.013705 0.12519 -0.36404 -0.30042 0.10586 0.48186 0.032621 -0.18641 -0.1046 -0.30677 -0.30053 -0.25577 -0.20713 -0.021695
by -0.11576 -0.060881 -0.13401 -0.61435 -0.19755 0.23418 -3.3754 -0.10872 0.51646 -0.093283 -0.5613 -0.0047589 -0.087711 -0.11326 0.25305 -0.19487 -0.29363 -0.046856 0.035137 -0.38397 0.86538 0.2526 -0.43044 0.14032 0.49132 -0.64698 0.35571 -0.55175 -0.28646 0.052156 0.11763 0.29159 0.47173 0.53689 -0.086643 0.40597 0.18372 -0.2947 0.22224 0.14991 0.35313 -0.23908 0.21952 0.086945 1.0176 0.15116 0.44394 -0.1246 0.032683 0.33389 0.84767 -0.058082 -0.63929 0.40544 -0.05092 0.064839 0.66326 0.14102 0.79176 0.17524 -0.79128 0.40973 0.31938 -0.42051 0.20976 -0.099436 -0.32411 1.1264 0.022788 -0.13021 -0.27708 -0.34675 0.37322 8.2513e-05 -0.34685 0.29348 -0.41246 0.49528 -0.0082721 0.2139 -0.0071346 -0.67461 0.081274 -0.45273 0.26644 0.16101 0.27104 -0.027355 0.14235 -0.1481 -0.19494 -0.1142 0.097143 -0.53722 0.27265 0.055552 -2.6398 0.16212 0.061758 0.073232 -0.082945 -0.13218 -0.004479 0.045386 0.1343 -0.063149 0.39337 -0.33905 0.11608 -0.36452 -0.45162 -0.3803 -0.36012 0.19408 -0.2723 0.12668 -0.032778 -0.33368 -0.01381 0.17976 0.14901 -0.013945 0.25306 0.54544 0.12883 -0.038744 0.21085 -0.74882 -0.036983 0.071979 0.010691 0.40774 -0.45506 0.20632 0.36027 0.23158 0.13495 0.21388 -0.23418 1.255 -0.084244 -0.13883 0.25678 0.50506 0.28669 -0.71818 0.72921 -0.76376 0.59133 0.081399 0.12063 0.30905 0.0048632 0.31169 -0.19122 -0.26259 -0.13185 -0.4443 -0.18602 -0.31447 -0.25223 -0.61112 -0.48038 -0.40029 0.022261 0.25831 -0.54237 0.13942 0.39521 -0.427 0.24712 -0.35507 -0.083688 0.83888 0.10428 -0.79117 0.23247 0.41964 0.57898 0.61367 0.95577 0.2926 0.41231 0.49866 0.3484 -0.26918 0.40684 -0.034774 -0.18573 0.22353 -0.60127 0.29095 0.64748 -0.28715 -0.27767 -0.0063649 -0.29657 0.082825 0.099471 -0.61447 0.19617 -0.41491 -0.0064707 0.57817 0.64251 0.48815 -0.47913 -0.15456 0.17264 0.12085 0.3425 0.64866 0.42577 0.072899 -0.24166 -0.23809 -0.051431 -0.31039 0.0040692 0.085554 0.020662 0.88006 -0.25059 0.6087 -3.3837 -0.088669 -0.22091 0.3462 0.11247 -0.19294 0.54107 0.77504 0.72006 -0.40232 0.39522 0.36003 -0.10669 -0.43977 0.47688 -0.12302 -0.34512 -0.079225 0.039593 -0.30416 0.53311 0.19223 -0.083955 -0.1319 -0.43717 0.63672 -0.61731 -0.79478 -0.72633 -0.45848 -0.59327 0.16522 -0.15955 -0.66407 -0.32241 -0.27124 0.20436 0.53381 0.1069 0.42608 0.67841 -0.20343 0.56907 -0.65156 0.19499 -0.18209 -0.086904 0.3339 -0.24918 -0.31428 0.049823 0.67542 -0.45278 0.96267 0.11389 0.93658 0.28661 0.10661 -0.64447 -0.16164 -0.63739 -0.44493 0.40626 0.048489 0.081641 -0.21953 -0.038541 -0.34415 -0.43979 -0.48682 -0.1212 0.21494 0.40048 -0.16947 -0.11143 0.24369
are -0.32144 0.11529 0.009374 -0.76013 -0.026915 0.23743 -4.3171 0.026367 0.27994 -0.5173 0.68546 0.67593 0.12277 -0.1643 -0.46792 -0.43354 -0.30961 -0.20337 0.11161 0.018163 -0.060937 0.45455 -0.10882 0.61486 0.24002 -0.38232 0.1092 -0.83432 -0.46543 0.007523 -0.71863 -0.068062 -0.19244 -0.27343 -0.57759 -0.16309 0.33763 -0.3623 -0.2137 -0.30494 -0.17592 0.47164 0.16616 -0.99144 -0.21124 -0.020896 0.34418 -0.63174 -0.12557 -0.14805 0.33517 0.081677 -0.15593 -0.20606 -0.089607 -0.093037 0.34389 -0.11885 -0.078173 0.17464 -0.21066 0.28514 -0.008026 0.56485 0.18863 0.39356 -0.22836 -0.10478 0.72483 -0.19032 -0.42418 -0.10302 -0.030817 -0.11036 0.22256 -0.57785 0.24705 0.56437 0.66803 0.46724 0.55864 -1.1356 -0.13312 -0.15609 0.097505 0.2201 -0.29415 -0.35492 0.30264 -0.27079 -0.083222 -0.47583 -0.55335 0.22816 0.68483 -0.59622 -2.7266 0.15785 -0.090843 0.0303 -0.15752 0.082131 0.11193 0.050659 -0.362 0.22175 -0.12983 -0.61567 0.038976 0.077804 -0.19017 -0.26825 -0.31495 0.5038 -0.17888 -0.25423 -0.0033253 -0.45029 0.17553 0.26023 0.12438 -0.24639 -0.29056 -0.66207 0.37022 0.22097 0.17377 -0.29551 -0.1776 -0.12422 -0.352 0.12094 -0.24914 -0.13908 -0.069313 0.19971 0.22397 0.075014 0.34438 0.28824 0.38383 0.028388 -0.12611 -0.52912 -0.10346 -0.29612 -0.30869 -0.20342 0.35472 -0.1638 -0.04145 -0.15827 -0.31046 0.18705 0.45259 -0.016342 0.16776 0.40938 -0.11545 0.10012 -0.20025 -0.26967 -0.051389 0.10079 -0.39302 0.29816 0.038098 -0.2588 0.20012 0.33812 -0.12388 0.33719 -0.29721 0.15836 -0.55856 0.58711 0.14125 -0.14661 0.241 -0.23284 -0.0052417 -0.23744 -0.01262 0.071082 -0.084345 -0.49 0.39882 0.35503 0.7094 0.029593 -0.13657 0.23136 0.16352 -0.13021 0.38004 0.19738 0.45577 0.32241 -0.39441 -0.25194 0.56881 -0.35197 0.73083 -0.082726 0.038707 0.27214 -0.23466 -0.21227 0.022573 -0.41686 -0.082657 -0.044229 -0.020265 -0.25372 0.42126 0.064862 -0.35125 -0.31695 -0.27302 -0.038859 -0.35295 -0.28598 0.33055 0.034331 -2.9521 0.31168 0.095067 0.066446 -0.018205 -0.59834 0.12353 0.22099 0.3433 -0.32882 -0.17111 -0.12875 0.10074 -0.34919 -0.036864 -0.19543 -0.32264 -0.049252 0.25013 -0.32961 -0.15428 -0.388 -0.10246 0.23066 -0.054056 0.30242 0.19612 0.40811 -0.13817 0.19211 0.30592 -0.29147 0.39175 0.098947 0.41145 0.13738 -0.40322 -0.23493 0.088248 0.021146 0.1107 -0.15514 -0.46313 -0.15583 0.33434 -0.23715 -0.3025 -0.19948 -0.33561 0.24799 -0.51849 0.15136 0.16185 0.21051 0.070237 -0.23575 0.23265 0.12632 -0.0044983 0.55716 -0.046758 0.49024 0.3785 0.25272 0.23549 -0.39772 -0.1943 -0.16822 -0.11174 -0.27821 0.13652 -0.067655 -0.12824 -0.28773 0.22003 0.19564
at 0.19858 -0.21295 0.58136 0.11703 -0.35902 -0.29798 -3.3128 -0.40837 0.54842 0.011263 -0.2767 0.21712 -0.36623 0.16447 -0.40202 -0.086498 -0.3726 0.86791 -0.4067 -0.21872 -0.25764 -0.25941 -0.66933 -0.2784 -0.136 -0.73737 -0.15053 -0.30264 -0.027996 0.25567 -0.28756 0.098468 0.51247 -0.21289 0.21231 -0.14253 -0.20115 -0.41131 0.46757 -0.64263 -0.22259 -0.41434 0.47261 -0.029737 -0.014493 -0.79183 0.29177 0.17456 0.21845 -0.13859 0.90495 -0.32812 -0.33677 0.70155 0.26507 -0.37986 0.3486 -0.65046 -0.53663 0.4797 0.20917 0.15437 -0.26958 -0.37218 -0.12921 -0.014455 -0.10573 0.078615 -0.055903 0.034532 -0.43104 0.24623 0.0045651 -0.46928 0.19664 -0.36891 0.46827 0.034051 0.067918 0.45027 -0.29903 -0.62056 0.021789 -0.27536 0.19167 -0.073368 0.64368 -0.66817 0.096072 0.12387 -0.053344 -0.31272 0.24038 -0.43956 -0.13953 0.20566 -1.9291 0.53026 -0.43008 0.11288 0.35058 -0.33937 0.11261 0.43616 -0.22097 -0.077465 0.10001 -0.25796 0.47544 0.06257 -0.37026 -0.49911 0.064133 0.0039803 -0.28074 0.48447 0.1405 0.045205 1.0375 0.24064 -0.50396 -0.012116 -0.36121 -0.46883 -0.4328 -0.29501 -0.082757 0.42482 0.13417 0.20695 0.29054 -0.29788 0.38229 0.4761 0.41921 0.25024 -0.35936 0.29302 -0.10557 1.4136 0.26221 -0.36639 0.12729 -0.011124 -0.18558 -0.48474 0.62131 -0.48025 0.39553 0.018361 0.36426 -0.14345 0.017125 -0.3819 -0.30331 0.018299 -0.51594 0.2275 -0.084443 0.28251 0.50667 0.19031 0.32378 -0.038276 -0.25299 -0.27393 0.47366 0.88923 0.25253 -0.02842 0.076868 0.30023 -0.045888 -0.51676 -0.040846 -0.29018 0.91914 -0.037937 0.26955 -0.13777 0.66311 0.91432 0.098134 0.069256 -0.75655 0.32917 -0.44966 0.77311 0.72796 0.64576 -0.069432 -0.33229 0.63175 0.021874 0.47786 -0.47566 -0.55242 -0.23456 -0.038125 -0.61802 0.8301 -0.12668 0.23611 0.6309 0.44755 -0.12136 -0.58777 0.31225 -0.20738 0.27494 0.1602 0.14363 -0.54709 0.033536 -0.089995 -0.31886 -0.16756 -0.0092171 -0.28353 -0.15007 -0.60413 0.0079246 -0.10927 -0.17721 -4.3889 0.093763 0.53993 0.40987 -0.36421 0.71719 -0.031626 0.70066 -0.24588 0.4568 0.076099 0.62889 0.23412 0.11775 0.20158 0.074604 -0.59144 -0.11543 -0.029619 -0.24001 -0.44616 0.071203 0.33258 0.27676 -0.044518 0.050587 -0.44132 0.33026 0.17214 -0.093377 -0.35279 0.31836 -1.0301 -0.05766 -0.42981 -0.18142 0.36711 0.093286 -0.021809 -0.44818 -0.32156 0.035556 -0.52302 -0.10479 -0.30129 0.33642 0.19914 -0.076857 -0.14921 0.36002 -0.0098825 0.23834 0.22386 0.7456 0.40056 -0.33509 0.7997 -0.62408 0.27605 0.18228 -0.5576 0.0027611 0.033714 -0.69055 0.038088 0.17382 -0.27814 -0.042609 -0.22671 0.49875 -0.29422 0.5791 -0.2649 0.29337 0.19481 -0.32042
as 0.083738 0.13401 -0.40647 -0.34961 0.076245 -0.37206 -4.2428 0.51606 -0.10843 -0.43918 0.32854 0.036214 0.22279 -0.11515 -0.39788 -0.13118 0.041976 -0.18657 -0.038682 0.2619 -0.053851 -0.058142 -0.11752 0.21596 0.00034465 -0.30334 0.20542 -0.79291 -0.055569 -0.42087 -0.17578 0.070841 -0.078889 0.20571 -0.16125 -0.2328 -0.020184 -0.41748 -0.16818 0.2613 -0.057943 0.25491 0.09971 0.027543 -0.2763 -0.23473 0.18937 -0.24454 0.11145 0.14868 -0.15835 0.39118 -0.16832 0.11416 -0.23981 -0.34266 -0.19927 -0.11019 -0.13105 -0.10673 0.16171 0.1794 -0.032838 0.11182 -0.33118 0.36772 0.052274 0.39795 0.40636 -0.36114 -0.16241 0.23524 -0.011393 -0.16557 -0.12472 -0.31843 0.31038 0.12507 -0.041243 -0.1009 0.050907 -0.75736 -0.13402 -0.21978 -0.037805 -0.14145 0.0063182 -0.41735 -0.3089 -0.13123 -0.15734 0.042107 -0.20571 -0.068264 0.15989 -0.27594 -2.8285 0.18839 0.40031 -0.16541 0.29822 0.19547 0.24141 0.019291 -0.20127 -0.013216 0.4745 -0.77923 0.20773 0.067567 0.059684 -0.1868 0.20074 0.22767 0.27641 -0.05075 0.50067 -0.23586 0.36964 0.43843 -0.31619 -0.11252 0.027157 -0.2662 -0.15991 -0.32766 -0.20267 -0.041489 -0.15645 0.29983 -0.55249 -0.18001 0.17618 -0.27698 -0.061686 0.4887 0.16129 0.16584 0.51597 0.48574 0.15822 0.00399 0.27248 0.12351 -0.34337 0.077888 0.23406 -0.15642 0.76834 0.1193 -0.15996 0.060886 -0.19174 -0.26334 -0.22006 0.24895 -0.14988 0.095828 -0.39346 0.5643 -0.051969 -0.12182 -0.15491 0.28138 -0.27487 -0.13067 -0.076746 -0.45648 0.053896 -0.42692 -0.17647 0.41378 0.068977 -0.082558 -0.4135 0.27197 0.11604 -0.3555 0.085805 -0.020704 0.17962 -0.42194 0.27998 -0.096181 -0.17654 -0.67729 0.18482 0.17758 0.021728 0.1479 -0.025958 -0.1156 0.2221 -0.049004 0.26477 -0.15906 -0.32491 0.18274 0.15774 -0.063048 0.066831 -0.090329 0.13323 0.11413 0.16953 0.74933 0.30391 0.32811 0.33735 -0.25578 0.1986 0.056704 -0.37101 0.088633 -0.25997 0.15164 0.24398 -0.13166 0.030027 0.30901 0.23006 -0.20501 -0.033027 0.052423 -2.9363 0.093052 -0.0034928 0.19138 0.18277 -0.11769 0.24013 0.13086 0.3235 -0.17784 0.069096 0.54455 0.23938 0.16176 0.057555 -0.32499 -0.01823 -0.0043434 -0.46167 0.15621 -0.26871 -0.0073916 -0.37631 -0.21573 0.062492 -0.10066 0.22084 -0.068335 -0.23032 -0.15227 -0.10597 -0.50172 0.085831 -0.056963 -0.20162 0.18025 0.44947 0.09709 0.099525 -0.11653 -0.093434 -0.098543 -0.5757 -0.30002 -0.13704 0.031036 0.31697 -0.02044 -0.29916 0.33833 0.024107 0.3765 -0.3335 0.17098 0.25353 -0.2348 0.78045 -0.39925 0.48075 0.083375 0.092099 -0.014545 0.1349 -0.16283 0.16684 -0.030533 0.092935 -0.18143 -0.27544 0.095794 0.23304 -0.021151 -0.26706 -0.19636 -0.11533 0.025416
be -0.24443 0.033343 0.062834 -0.32583 0.24149 0.26266 -4.5157 0.75212 0.27528 -0.45958 0.44274 -0.35414 0.19612 -0.28342 -0.13278 -0.32873 -0.27344 0.1412 0.25791 0.26344 -0.027439 0.12743 0.1039 0.14536 0.3735 -0.32346 -0.083492 -0.33843 -0.11877 0.27641 -0.80609 0.25627 -0.055239 -0.33258 -0.5291 -0.4624 0.04134 -0.036933 0.067825 -0.073149 -0.18451 0.31476 -0.046087 -0.27223 -0.10528 0.031633 0.23804 -0.22536 -0.27483 -0.30367 -0.31471 0.23113 -0.33369 -0.18226 -0.1805 -0.36702 -0.014862 0.037436 0.14579 -0.086716 -0.4723 -0.30506 0.16164 0.14889 0.32846 0.44988 -0.087554 -0.1351 0.13727 -0.2944 -0.36807 0.20075 -0.063106 -0.40912 0.25391 -0.37736 0.080617 0.11879 0.32146 -0.055617 -0.018306 -0.83969 -0.10928 -0.15014 0.057437 0.19178 -0.20125 -0.34775 0.30368 -0.61351 0.21111 -0.33204 -0.067415 0.18517 0.13535 -0.33186 -2.4131 -0.10198 0.049245 0.13444 0.072473 0.14761 0.05473 -0.10841 -0.11014 0.0085264 0.19784 -0.42979 -0.051437 -0.41932 -0.026351 -0.42486 -0.097093 0.42999 -0.45642 0.30967 -0.02739 -0.073164 -0.065393 0.16264 -0.32676 0.10767 -0.11586 -0.45708 0.25177 -0.1831 0.32551 -0.25645 -0.59167 0.33259 -0.43648 -0.0062448 -0.15694 -0.23234 0.46818 -0.072043 0.04737 0.29812 0.4513 0.24157 0.52776 -0.087081 0.062404 -0.34382 -0.13955 0.00066785 -0.012348 -0.15883 0.64781 0.28006 0.14746 0.14447 -0.11726 0.083732 0.40343 -0.18804 -0.095696 0.20283 0.065161 0.095179 0.25834 -0.26556 0.24215 0.03536 -0.18194 -0.055974 0.22415 -0.020344 0.40875 0.20495 -0.094598 0.11934 -0.19528 0.14796 -0.30255 0.37622 0.020274 0.050681 0.26945 -0.30426 0.12099 0.23229 0.16599 0.25462 -0.19218 -0.54306 0.017959 0.42464 0.12401 0.10699 -0.048932 0.13726 0.23823 0.14102 0.31969 0.028113 0.056762 0.13284 -0.034285 -0.43502 0.42517 -0.097195 0.099163 0.27939 -0.0094802 0.37927 -0.046438 0.13603 0.1769 -0.3031 0.060805 0.11745 0.08309 -0.0097373 0.044466 0.085535 -0.16213 -0.37773 -0.085697 -0.61878 0.11078 0.052214 -0.18767 0.066362 -3.1506 0.12396 -0.09883 -0.12778 0.23001 -0.3056 0.14074 0.50931 -0.078077 -0.15914 -0.063641 0.33941 -0.070088 0.024473 0.024691 0.016801 -0.42843 -0.072112 -0.47347 -0.046178 -0.212 -0.13498 -0.33709 0.47761 0.17218 0.13431 -0.27614 -0.18668 -0.31717 -0.31092 -0.081697 0.045739 0.36272 0.20204 0.044973 0.36262 0.10701 0.0034976 0.13509 -0.14225 0.058709 0.078868 -0.21111 -0.36164 0.093962 -0.47559 0.078281 -0.19824 -0.22839 0.38214 -0.24732 0.23101 0.057393 0.18175 0.33752 0.14596 0.48024 -0.40902 -0.028911 0.21437 -0.23969 0.078185 0.31957 0.42159 0.025216 -0.52554 -0.51488 -0.22735 -0.34635 -0.076397 0.17312 0.0132 0.23074 -0.26427 0.10076 -0.33214
from -0.3608 0.25337 -0.15906 -0.61926 0.37083 -0.44016 -3.6589 -0.44855 -0.7584 0.15862 -0.013602 0.0047844 -0.38754 -0.14042 0.11756 -0.78521 -0.5513 0.51828 0.23261 0.52469 -0.35775 0.18853 -0.18378 0.038335 -0.27936 -0.48169 -0.23016 0.10142 -0.43912 0.003859 -0.046247 0.32915 0.074654 0.066665 -0.38187 0.0055843 0.34158 -0.094911 0.54912 0.089777 0.15139 0.21897 0.059417 -0.30624 -0.35477 -0.092982 0.88716 -0.017944 -0.24761 0.45925 0.25479 -0.028294 -0.25193 0.25669 0.22062 0.46103 0.52064 0.036048 0.29292 0.2412 0.12627 -0.29121 -0.1784 -0.7485 -0.12818 0.10795 -0.35184 0.42102 0.22599 -0.16168 0.54137 0.02594 0.23684 -0.093291 -0.044069 0.07959 0.078418 0.70623 -0.61603 0.37231 0.092149 -1.0142 0.14205 -0.019278 0.55535 0.15778 0.27906 -0.50419 -0.18513 -0.066149 -0.26922 0.46182 0.13379 -0.33584 0.45305 -0.59521 -2.3857 0.092115 -0.27097 -0.078057 -0.22807 0.039128 0.50566 0.13348 -0.30097 -0.4999 0.80516 -0.18948 -0.18269 -0.33952 -0.24739 0.50616 -0.079964 -0.045037 -0.43965 0.5843 0.60866 0.47771 0.27507 -0.18816 -0.36761 -0.19092 0.15122 0.22579 0.32642 0.37201 0.24899 0.071401 0.44053 -0.075212 0.47179 -0.27223 -0.33065 0.34563 0.0335 -0.24523 -0.047911 -0.41469 0.38722 0.40968 -0.33529 -0.24348 -0.40286 -0.053694 0.057459 -0.58515 0.043352 -0.022242 0.31657 -0.28965 -0.47689 -0.32103 -0.098546 -0.00098575 0.19853 0.24968 -0.129 -0.24233 -0.010011 -0.32094 0.21401 -0.039761 -0.038632 0.031161 -0.74688 0.10579 -0.3156 0.23651 0.14847 0.4652 0.30194 0.066157 -0.45164 0.033321 -0.19195 0.87247 -0.28883 0.13689 -0.32561 -0.17087 0.21702 0.51644 0.62376 -0.26711 0.075024 -0.46726 0.44361 0.11348 0.13952 -0.05199 -0.016654 0.69506 0.097694 -0.25128 0.030739 -0.67554 0.84858 0.41108 0.48275 -0.5458 0.17218 0.18168 0.28612 -0.035454 0.5278 -0.28584 -0.27224 -0.076351 -0.1255 -0.76337 -0.75728 0.26512 -0.44571 -0.15225 -0.87568 0.33908 -0.23556 0.10124 0.23434 -0.23384 -0.30727 0.30944 0.28957 0.18612 -3.5968 0.41852 -0.41853 -0.38828 0.27342 -0.021631 0.27124 0.060064 0.081214 -0.2149 0.2554 0.45232 0.027942 0.36175 -0.42302 -0.59313 -0.44976 0.035761 -0.14348 -0.073288 0.1348 -0.60814 0.20909 -0.10149 -0.2771 0.46888 0.06378 -0.66814 0.21295 -0.022328 -0.1088 0.03783 -0.17343 -0.60465 -0.053489 -0.29051 0.45965 -0.033948 -0.6061 -0.44252 -0.0056941 -0.63371 -0.11502 0.034399 -0.015527 -0.10867 -0.41683 0.32305 -0.65352 0.21926 -0.53578 0.48275 0.66371 0.24682 -0.046183 -0.19272 0.936 -0.076267 0.25906 0.1003 -0.40648 -0.25017 -0.085354 -0.46794 0.24395 0.38883 0.24458 0.61058 0.092489 -0.32686 -0.37437 0.26927 0.0015457 0.12749 0.15424 -0.29048
have -0.17051 0.08594 -0.0077239 -0.20203 0.056731 0.069374 -4.3595 0.33472 0.2602 -0.66285 0.20324 0.38957 0.076573 -0.034253 0.058751 0.17015 -0.0095018 -0.39611 0.41269 -0.06752 -0.023746 -0.099543 0.107 0.38412 0.043203 -0.31578 -0.13134 -0.40375 -0.20433 0.059251 -0.53102 -0.12945 0.0040964 -0.15682 -0.11392 -0.2884 0.11888 -0.2296 0.41515 -0.53953 -0.042801 0.57784 0.0071644 -0.21072 -0.36293 0.078271 0.1656 -0.36863 -0.24178 0.094541 -0.22 -0.22976 -0.030081 -0.22651 0.1268 -0.049075 0.26899 -0.15493 -0.12895 0.139 0.055911 0.0032667 0.092917 0.16623 0.3407 0.36864 0.0103 -0.12863 0.062171 -0.34181 -0.27062 0.1442 0.33648 0.19065 0.32686 -0.14154 0.54923 0.51321 0.33905 0.35435 0.54082 -0.91599 -0.33101 0.097371 -0.59133 -0.30169 -0.044108 -0.089423 0.17151 -0.16009 0.37617 -0.17579 -0.25185 0.27095 -0.162 -0.67144 -2.5656 -0.22879 0.19263 0.12137 -0.093167 -0.024988 0.15526 -0.11971 -0.082105 0.1885 -0.047457 -0.32871 0.024454 -0.35524 0.20913 -0.13257 -0.016201 0.42176 -0.3037 0.50781 -0.11173 0.0033651 0.084693 0.11673 0.1941 0.018461 -0.016457 -0.23745 0.26972 0.39438 0.14727 -0.18112 -0.48419 -0.010976 -0.24351 -0.018315 -0.016077 -0.10937 0.49083 -0.10887 0.046963 -0.20158 0.2204 0.24376 0.43987 0.15353 0.14963 -0.47737 0.3838 -0.31252 0.25021 -0.13913 0.19226 -0.048698 0.18434 0.036688 0.1726 -0.18167 0.3848 0.23742 -0.069129 -0.14357 -0.2283 0.025408 -0.047374 0.044189 0.095887 -0.27506 -0.13467 0.30148 0.30302 -0.35927 0.17123 -0.22554 -0.038095 0.11455 -0.14614 -0.086046 -0.58824 0.52016 -0.32385 -0.15614 0.076704 -0.3115 0.019081 0.31733 -0.18188 -0.066072 -0.1989 -0.020426 -0.098163 0.051803 0.052199 -0.16489 0.2055 -0.44419 0.21619 -0.25849 -0.29244 0.13757 0.4357 0.22269 -0.23056 -0.2472 0.2982 -0.33546 0.27086 0.022905 -0.22672 0.21425 -0.077292 0.18555 0.5574 -0.045987 0.34597 -0.05393 0.25878 -0.5041 0.22923 -0.14065 -0.45785 -0.13184 0.14586 -0.0093325 0.03258 -0.39164 0.056193 0.12039 -3.0604 0.39175 0.14896 -0.1222 0.22847 -0.17666 -0.25548 -0.081268 0.38343 -0.29476 -0.24389 0.096864 -0.2599 -0.0056944 0.083919 0.015185 -0.51784 0.10415 -0.70913 -0.042434 0.040307 -0.1308 -0.12337 0.44014 -0.18058 0.2544 -0.0090596 -0.025426 0.14528 0.12049 0.34069 0.020575 0.5232 0.041148 0.034141 0.18456 -0.29802 -0.23476 0.0062786 -0.0026143 0.13988 -0.31798 -0.47417 0.09488 0.10328 -0.21775 -0.021225 -0.39119 0.017065 -0.094846 0.1692 0.12372 0.11252 0.2619 0.61406 -0.013412 0.55815 0.25377 0.16142 0.25812 0.17542 0.38631 0.051911 0.1841 0.23211 0.10834 -0.20352 -0.089551 -0.03059 -0.45541 -0.03969 -0.33123 -0.11586 -0.23204 0.17605 0.21544
was -0.0422 -0.00044414 0.052895 -0.051688 0.013487 -0.79987 -3.6616 0.47123 0.014875 -0.58004 -0.050214 -0.25385 -0.22905 -0.56836 0.013797 0.23938 -0.28826 -0.04298 0.2424 0.32766 0.214 0.0854 0.037043 0.029947 0.084437 -0.078447 0.40809 -0.079248 -0.12548 -0.0091298 -0.45308 0.18609 -0.34078 0.059656 -0.043105 -0.579 -0.061502 -0.01003 0.54252 -0.016354 0.031682 -0.0832 -0.21431 -0.0081345 0.0073582 0.029713 -0.036189 -0.57631 -0.27547 0.2795 -0.012978 0.21906 -0.098276 -0.20993 -0.26934 -0.28933 -0.33241 0.08515 0.064352 -0.22014 -0.1032 -0.095288 0.10019 -0.034804 -0.15684 0.31983 0.2336 0.26492 -0.21679 -0.39471 -0.1261 -0.33856 -0.046893 0.18773 -0.053077 -0.21897 0.44603 -0.10653 0.16692 -0.08419 -0.23332 -1.909 -0.30465 -0.29455 -0.10177 0.13715 -0.076506 -0.11507 0.22443 -0.5801 0.39166 -0.0084039 -0.082574 0.1461 0.064093 -0.09909 -1.6296 -0.021469 -0.11904 0.40552 0.42465 -0.27034 0.15491 0.10777 -0.079444 0.034213 0.039467 -0.47036 0.039917 -0.39513 0.070025 -0.12088 -0.12151 0.08851 -0.44519 0.90457 0.22238 -0.23565 0.47351 -0.031014 -0.49156 0.098274 -0.34756 0.054364 0.034727 -0.13149 0.11181 -0.1907 -0.29876 0.73002 0.12727 -0.092088 -0.11526 -0.16804 0.31833 0.23433 -0.054916 0.33924 0.25426 0.046537 0.19979 0.097774 0.062979 0.16438 -0.43967 -0.013241 0.3104 -0.20721 0.64254 -0.018387 -0.074212 0.12708 -0.23786 -0.56062 -0.4103 -0.46882 -0.20886 0.094681 -0.13302 -0.16507 0.26636 0.071443 -0.013022 -0.16851 -0.31743 -0.13101 0.26512 0.032901 0.44118 -0.64397 0.39604 0.44228 0.028674 0.11635 -0.11428 0.59659 -0.046833 -0.15204 -0.44769 -0.22704 0.23095 0.16627 0.11271 0.040472 -0.12693 -0.52465 -0.019405 -0.12438 -0.091579 0.21294 0.31784 -0.31767 0.1349 -0.10343 -0.27455 0.48925 0.099682 -0.3433 0.54026 -0.58535 -0.031088 0.022056 0.22698 -0.17437 -0.18633 0.58725 -0.20374 0.20983 1.0336 0.16454 0.50782 0.073575 0.01655 -0.10263 0.26383 0.32252 -0.088987 0.19267 0.1064 -0.34742 -0.057547 0.53925 0.16341 0.2864 -3.9907 -0.31621 0.032081 0.10523 -0.022075 -0.20734 -0.17209 0.4447 -0.0023964 -0.18686 0.16984 0.65246 -0.094024 0.27013 0.25546 -0.1644 -0.24661 -0.10165 -0.33292 0.42391 0.43247 0.14764 -0.13161 -0.33962 -0.31719 0.51275 0.10954 -0.085654 0.11054 -0.26207 0.090126 -0.023944 -0.047574 -0.13459 0.13345 -0.094191 0.026425 0.36678 0.027964 0.064741 0.37098 0.074498 -0.064098 -0.35062 -0.24111 -0.077171 0.56507 -0.11008 -0.28337 -0.42702 -0.16504 0.25297 -0.018753 0.25761 0.26107 0.35012 1.1987 -0.33028 0.52412 0.063946 -0.044426 -0.13462 0.13996 0.12206 0.073001 -0.25481 0.086746 -0.23088 -0.10297 -0.07171 0.37835 -0.042305 0.15936 -0.084958 -0.11906 -0.4981
or 0.23333 -0.30334 -0.44491 -0.030651 0.15669 0.16303 -4.3474 0.75635 -0.20263 -0.30256 0.95183 -0.41293 0.065988 -0.27925 -0.33301 0.028757 -0.48017 -0.087209 0.33913 0.16456 -0.15929 0.00096796 -0.19011 0.23887 0.34067 -0.13174 0.010151 -0.63385 -0.10604 -0.44913 -0.24254 0.38964 0.19535 0.017324 -0.52815 -0.20234 -0.38265 -0.10951 0.13698 0.091294 0.51514 -0.010162 -0.77778 -0.34788 0.22571 -0.037317 0.18892 0.12465 -0.39181 0.04366 -0.88477 -0.22905 -0.13844 0.21993 0.016505 -0.12035 -0.19845 0.0078922 -0.16016 -0.32639 -0.23057 -0.32575 -0.044911 0.090077 0.69077 0.18433 -0.1095 0.14209 -0.21122 0.402 -0.54458 0.0040516 0.25768 -0.55107 0.13931 -0.19071 0.75392 -0.056051 -0.4882 -0.43108 -0.075989 -0.58015 0.50855 -0.067534 -0.079069 0.6054 -0.082123 -0.35765 0.020208 -0.1943 -0.073582 -0.31765 -0.31829 -0.31037 0.17202 -0.6684 -2.7923 -0.29473 0.53335 -0.027449 0.37785 0.073288 0.2575 -0.23714 -0.27898 -0.57687 -0.11586 -0.10784 -0.038465 0.28263 0.2993 0.28863 0.015838 0.22688 0.27427 -0.32408 0.55569 -0.35578 -0.17217 -0.08473 -0.090626 -0.26975 0.24747 -0.29351 0.063356 -0.15497 -0.27664 -0.20259 0.14142 -0.21094 -0.07981 0.1198 0.029082 -0.50698 0.39551 0.3969 0.19105 -0.25293 0.41513 0.14778 0.4164 -0.19721 -0.35669 0.1216 0.18999 -0.1961 0.11872 -0.1971 -0.068737 0.41881 -0.0039926 0.26365 0.065175 0.032958 0.43811 -0.029835 0.064808 0.34377 -0.26359 -0.64936 -0.12517 -0.097353 -0.15696 -0.045035 0.29255 -0.2917 -0.037714 0.32806 -0.17532 0.21157 -0.052095 -0.69644 0.0048582 -0.17262 -0.29121 0.50897 0.090105 -0.25201 -0.058365 0.0007995 -0.17235 -0.33984 -0.4082 0.047729 -0.15011 -0.31763 0.56859 0.20901 0.32835 -0.26197 -0.12743 -0.70984 -0.35975 -0.090983 0.16987 -0.051318 0.064503 -0.045011 0.045659 -0.35975 0.47616 0.046036 0.13521 0.14816 0.66702 0.34879 -0.33746 0.099447 0.41184 0.1382 -0.20694 0.089884 -0.042441 0.30392 -0.15441 -0.019407 -0.0098997 -0.42583 -0.22586 0.10388 -0.010985 -0.11146 -0.1108 0.39639 -3.0695 0.11594 -0.31303 -0.039867 0.77852 0.028196 0.37112 0.24712 0.61726 -0.29622 0.26498 -0.34662 0.63711 -0.031687 0.265 0.25365 -0.40811 -0.024617 -0.50053 0.0054446 -0.11923 0.038361 0.036128 0.46237 -0.23471 -0.2724 -0.21962 -0.40655 0.056105 0.1482 -0.32886 -0.16543 0.26417 0.15598 0.17655 0.11728 0.2214 -0.51787 0.55101 0.13528 0.24065 0.050806 -0.80346 -0.39978 0.78592 0.019305 -0.10755 -0.14565 -0.97429 0.24105 -0.20158 -0.31849 0.72603 0.28856 0.17032 -0.41086 0.45323 -0.69593 0.10092 0.032555 -0.43575 -0.44142 0.19424 0.037185 0.48126 0.073867 -0.32913 -0.21113 -0.19821 0.16669 -0.4133 -0.038567 -0.48327 -0.27795 -0.57561 0.0037754
your 0.31261 -0.21024 -0.29676 0.042702 -0.010114 -0.057844 -4.7176 0.52637 -0.080199 -0.54652 0.1178 0.034668 0.56859 0.070415 -0.013684 -0.049383 0.20602 -0.048774 0.13903 -0.0083261 0.59811 -0.66396 0.51968 0.34399 0.32023 -0.038088 -0.40479 0.12584 -0.37941 0.088033 -0.13778 -0.38641 0.38903 0.087011 -0.60561 -0.011583 -0.47728 -0.048257 0.16981 0.0688 0.27455 0.329 -0.24583 -0.58621 0.31266 0.20783 -0.076881 -0.27678 -0.12335 0.034985 -0.40722 -0.18906 -0.12025 -0.18107 -0.14542 -0.39763 0.52631 -0.032881 -0.11622 0.366 0.32916 -0.15711 0.4359 -0.18791 0.10293 0.37885 0.10566 0.41985 -0.21594 0.17053 0.25471 0.14869 -0.31147 0.017682 -0.40557 0.18334 0.35329 0.28422 0.242 -0.29629 0.18201 0.37279 0.0092751 0.15414 0.061548 0.28045 0.28551 0.52367 -0.62517 0.28685 -0.055684 -0.23478 0.38537 0.20421 0.29641 -0.97008 -3.3654 0.14569 0.10346 0.16348 -0.22104 0.0024729 0.53853 -0.29348 0.31548 -0.38746 -0.09295 0.37507 -0.39609 0.65237 -0.2271 0.0096267 0.12096 0.16185 -0.29103 -0.036427 0.26854 0.0066481 0.147 0.10301 0.067595 0.50784 0.85075 -0.41826 0.10437 -0.30247 0.48374 0.12804 0.14979 0.023057 -0.45949 0.40341 -0.16666 -0.17451 -0.15311 0.21832 -0.061085 -0.44431 0.2014 0.74391 0.32078 -0.090061 0.21828 0.30385 -0.090927 0.33591 0.0748 0.26025 0.1338 0.40524 -0.079655 0.030027 -0.23808 0.051259 0.46219 -0.42744 -0.32717 0.0019992 0.21317 -0.45971 0.54836 -0.72805 -0.35423 0.070846 -0.16044 0.21714 -0.014182 0.65666 0.33731 0.61199 -0.048671 -0.24982 0.14262 -0.38119 -0.62809 -0.057667 -0.050192 -0.098998 0.42146 -0.62483 0.40276 -0.32698 -0.4163 -0.1472 -0.040688 0.14367 0.034306 0.11247 0.20657 -0.26007 -0.26165 0.61284 0.020487 0.36182 0.38786 -0.67315 0.56085 -0.60659 0.23087 0.20783 -0.1333 0.054301 0.15711 0.12136 -0.28206 -0.44234 -0.016646 -0.28055 0.22055 0.037573 -0.40878 -0.042462 -0.39882 0.11123 -0.010797 -0.53347 0.23137 -0.48838 0.060233 0.62129 -0.087397 0.18831 0.22389 -0.36838 -2.8423 0.24174 -0.61228 0.049391 0.17476 0.11116 0.27748 0.17254 -0.17327 -0.221 0.044976 0.46513 -0.14646 0.21235 0.12831 -0.30025 -0.10982 0.62058 -0.34619 -0.36377 0.16736 0.059037 0.18562 0.2399 -0.10129 -0.35642 -0.16397 -0.023128 -0.065384 -0.30848 0.13402 -0.32237 0.1387 0.10593 -0.315 -0.71061 0.26315 -0.43809 -0.09738 -0.31845 0.24855 0.10392 -0.15121 0.18325 0.36847 -0.196 -0.59934 -0.23117 -0.39354 0.38399 0.18331 0.23515 -0.26833 -0.15181 -0.39697 -0.46782 0.17166 -0.25644 -0.0060025 0.11057 -0.28445 0.30516 0.19531 -0.010664 0.0047459 0.21749 0.21622 -0.054256 -0.48055 -0.51295 -0.10783 0.27744 -0.51958 -0.65816 0.055198 -0.054966
not -0.022975 0.087888 -0.24248 -0.074691 0.02824 0.22998 -4.5327 0.5373 -0.12518 -0.66138 0.5543 -0.025419 0.11417 -0.40385 0.0096543 -0.12993 -0.21505 -0.25925 0.27813 -0.088498 0.13009 -0.046868 0.0175 0.36643 -0.032872 -0.17078 -0.26807 -0.42586 0.077653 -0.16455 -0.61921 0.38747 0.26015 0.061263 0.047129 -0.038165 -0.24367 -0.10208 -0.0034508 -0.24689 0.12643 0.3372 -0.24855 -0.36743 -0.3716 -0.18604 0.080705 -0.23213 -0.072726 -0.18074 -0.19617 0.36208 -0.16366 -0.075338 -0.13983 -0.19771 0.19334 -0.071111 0.025522 -0.28499 -0.20524 -0.024694 0.4811 0.35094 0.2066 0.24465 0.17684 -0.017886 0.18143 -0.30241 -0.14863 0.59889 0.18398 -0.2547 0.087463 0.049013 0.40128 0.012377 -0.070462 -0.0082256 -0.035944 -0.93798 -0.028969 -0.38238 0.10747 0.049412 -0.31354 0.079988 0.21313 -0.43885 -0.00043834 -0.095345 -0.39125 -0.22197 0.21453 -0.48737 -2.4297 0.00049418 -0.014589 0.10345 0.001671 -0.12891 -0.39036 0.028072 -0.12452 -0.074444 -0.1448 -0.46083 0.10534 -0.043802 -0.01803 -0.19281 0.16531 0.17165 -0.42197 0.26413 0.13552 -0.25139 -0.22362 0.16482 0.0097142 -0.11494 -0.2954 -0.49498 -0.0030258 -0.43472 0.24684 -0.22546 -0.23665 0.1818 -0.21166 0.075385 -0.050222 0.054014 0.29924 0.10939 0.07169 -0.00080371 0.31698 0.13234 -0.0037191 0.20379 0.055665 -0.15463 -0.089738 -0.38155 0.32239 -0.19318 0.35282 0.17466 0.13583 0.21398 -0.35555 -0.072571 0.21612 -0.020512 -0.19917 -0.15595 -0.20171 0.27178 -0.04454 0.045257 0.0069772 0.24403 -0.17175 -0.29447 -0.026081 0.16088 -0.06991 0.0074897 -0.0057539 0.047139 -0.17451 0.027532 -0.24753 0.34246 -0.12805 -0.017721 0.21361 -0.45261 -0.033065 0.40818 -0.069298 0.38216 -0.11722 -0.24958 0.30722 0.13412 0.1065 -0.10731 0.14777 -0.043093 0.34366 -0.3835 0.021919 0.20521 0.20981 -0.15049 0.13862 -0.48075 0.20828 -0.093714 -0.19328 0.099862 0.011598 0.13444 -0.23759 0.11978 0.64072 -0.18559 0.33348 -0.1271 0.057205 0.16565 0.19509 0.16045 -0.19247 -0.41287 0.20756 -0.4871 0.058513 -0.28274 0.27144 -0.090221 -2.8021 0.42813 -0.043703 -0.066752 0.42034 -0.57819 0.39013 0.35403 0.10481 -0.10272 -0.4424 0.22075 0.28764 0.011536 0.11338 -0.086407 -0.33341 -0.0080434 -0.55527 0.17718 0.067367 -0.053292 -0.24967 0.4453 0.2619 0.19196 0.031451 -0.15395 -0.46885 -0.31279 0.15835 0.18253 0.52589 0.10207 -0.012071 0.18503 -0.18862 -0.042214 0.010729 0.13445 0.16057 -0.0044919 -0.10031 -0.17062 0.091895 -0.070606 -0.0018928 -0.25824 -0.34253 0.18466 -0.22609 -0.21352 0.083211 0.3931 0.17779 -0.061825 0.59823 -0.57151 0.16319 0.12012 -0.21018 0.3028 0.18371 0.38627 0.11382 -0.65203 -0.24343 -0.12854 -0.24938 -0.10539 0.15774 -0.14012 -0.14056 -0.32277 0.023121 -0.047671
... 0.56212 0.18495 -0.075977 0.025571 0.46854 0.37874 -3.765 -0.29738 -0.0858 -0.50077 0.26272 0.692 0.32741 -0.14429 -0.2001 0.037642 -0.19276 -0.36364 0.10898 0.11017 -0.087273 0.21734 0.23749 0.57913 0.11859 0.082868 -0.41221 -0.24022 0.48545 0.32044 -0.32369 -0.17816 -0.04268 0.032339 0.28364 -0.41358 0.60244 0.12176 0.27939 -0.18838 -0.2507 0.21086 -0.15251 0.040296 -0.065659 -0.038155 0.26007 -0.24076 -0.22009 0.12262 -0.22708 -0.11902 -0.49892 0.46398 -0.046112 0.046125 0.15499 0.34271 0.19617 -0.26306 0.43653 -0.21945 0.71652 0.044578 -0.50908 -0.32217 -0.32403 0.22468 -0.30023 0.14622 -0.0047717 -0.2116 0.083203 -0.39386 0.39484 -0.44063 -0.04624 -0.051638 -0.11641 -0.1416 0.10713 -0.75484 -0.094431 -0.10842 0.37803 0.30088 0.38789 0.16665 -0.074336 0.13611 0.18951 -0.17469 -0.72874 0.31688 0.18341 -0.0082886 -2.0487 0.051601 -0.1294 0.21976 -0.28776 -0.27967 0.35432 0.21562 0.092824 -0.50808 0.19596 0.11541 0.53229 -0.12485 -0.34718 -0.21275 -0.1723 -0.047848 -0.51122 0.24785 0.608 -0.36012 -0.51617 0.21544 -0.23302 -0.22201 0.44695 0.38556 -0.038595 0.1082 0.29268 -0.049164 -0.29034 -0.051951 -0.41654 0.14673 -0.37833 -0.0054842 -0.13857 -0.6771 -0.1657 -0.035627 -0.36266 1.0647 -0.10279 -0.012655 0.18486 -0.22184 0.31462 -0.16806 -0.044482 -0.070511 0.33731 0.067546 0.1548 -0.43744 0.34134 0.48979 0.010544 -0.28101 -0.21578 0.88587 -0.095685 -0.18864 -0.041357 0.1351 -0.34785 -0.14305 0.24444 -0.2138 -0.80206 0.31854 0.5126 -0.33542 -0.10639 0.24329 0.26086 -0.031774 0.14942 -0.25473 -0.084594 0.20869 0.060246 0.83434 -0.11296 0.59082 0.018564 -0.4747 -0.081403 0.24362 0.70943 -0.11216 0.57669 0.92297 0.3964 -0.18797 0.3744 -0.007552 -0.59946 -0.056885 0.21641 -0.20642 0.35328 0.18997 -0.46832 -0.3888 -0.34675 0.48683 0.13296 0.011724 -0.25681 -0.21351 -0.11675 0.24109 0.37542 0.020049 0.17595 -0.48498 0.32943 -0.28031 -0.0035867 1.1339 -0.20601 -0.21679 0.13305 -0.26209 -0.037144 0.21265 -3.4099 -0.54865 -0.27985 0.083853 -0.23462 -0.2134 0.16003 0.068415 0.33504 0.65122 0.078506 -0.15285 0.18481 -0.098766 0.44193 -0.13689 -0.023604 0.059219 -0.353 -0.52792 0.034633 -0.12986 0.31946 -0.5498 -0.1291 0.081313 -0.092724 0.09748 0.25731 0.050036 0.098605 -0.17555 0.71043 -0.0001591 -0.7 0.70073 -0.013865 0.58572 -0.16459 -0.73158 0.13719 0.3017 -0.080175 -0.01907 0.16807 0.1273 0.48611 -0.085799 -0.60206 -0.10253 -0.04978 0.32432 0.12609 0.28061 0.085189 0.17415 0.9044 -0.31496 0.063771 0.12539 -0.25605 0.13807 0.057789 0.72739 0.018606 0.23489 -0.068703 0.018421 -0.22006 -0.38472 0.67089 -0.25288 -0.17608 -0.033641 -0.063488 -0.191
we 0.039578 -0.017306 0.15328 0.031478 0.083129 0.16234 -4.5077 0.083579 0.40905 -0.87417 -0.1774 0.2618 0.068894 0.085179 -0.20791 -0.12864 -0.44382 -0.18928 0.18109 0.15617 -0.0074527 -0.025285 -0.013531 0.33518 -0.37534 -0.24668 -0.20784 -0.29495 0.18825 0.14947 -0.49101 -0.23668 0.20707 -0.56154 -0.17133 -0.052294 -0.25819 -0.087118 -0.1551 -0.41113 -0.062574 0.34862 -0.07405 -0.33135 -0.18201 -0.021936 -0.086275 -0.48647 -0.077919 -0.45345 0.24992 -0.12625 -0.024839 -0.45095 -0.16925 -0.16849 0.11338 -0.098647 -0.33544 0.16635 0.1222 -0.17345 -0.30177 -0.21617 0.047478 0.53111 -0.17611 -0.21329 0.29639 -0.13422 -0.47371 0.051657 0.50239 0.0022727 -0.12673 -0.16629 0.30366 0.33185 0.23533 0.01584 0.13943 -0.4382 -0.46803 -0.18802 -0.3159 -0.21779 0.31387 -0.20854 0.13717 -0.18146 0.12349 0.10798 -0.12753 0.43228 -0.030626 -0.80741 -2.3055 -0.13953 0.33389 0.031506 -0.30231 0.3102 0.31613 0.21085 -0.0308 0.020347 0.17004 -0.18652 0.080623 -0.21282 0.10428 -0.38492 -0.0493 0.32155 -0.33018 0.26265 -0.43792 -0.080592 0.14684 0.12546 0.021527 -0.13999 0.064841 -0.20464 0.11476 0.1046 -0.025208 -0.066871 -0.22107 0.019216 -0.38915 0.18895 -0.35307 -0.13624 0.87193 0.061388 0.10525 -0.21362 0.22843 0.57075 0.10361 0.45371 0.061192 -0.10205 0.14484 -0.30228 -0.17382 -0.29312 0.24086 0.10347 0.092414 0.063733 0.30312 -0.1628 -0.26364 0.028696 -0.47484 -0.1896 -0.010673 0.40145 0.27862 -0.17482 -0.17564 -0.1359 0.010767 0.11112 0.17315 0.050338 0.21923 -0.41289 0.12103 0.07341 -0.1997 0.11879 0.19553 0.29761 -0.01032 0.02658 0.038582 -0.0052652 0.28653 0.25739 -0.12553 -0.1847 -0.23969 -0.36088 0.031721 0.21896 0.013191 0.26984 0.19854 -0.18574 -0.043654 -0.1314 0.10928 -0.057982 0.40406 0.033669 0.0785 0.19051 0.43866 -0.32035 -0.053484 -0.040745 0.027657 0.074772 -0.090888 -0.2109 0.70193 -0.005208 0.1391 -0.18337 -0.17342 -0.30912 0.23886 0.019637 -0.56851 0.1133 -0.24786 0.1627 0.14232 -0.25153 -0.1321 0.098661 -3.1139 0.38703 0.26727 0.33571 0.06494 -0.21256 -0.26093 -0.36447 0.19348 0.27132 -0.23707 -0.02233 -0.19568 -0.020468 -0.029546 0.12596 0.016616 -0.084114 -0.50925 0.11079 0.19285 -0.026378 -0.5847 -0.089214 -0.029259 0.1839 0.22177 -0.20987 -0.32468 -0.10825 0.42083 -0.017417 0.45921 -0.14423 0.030321 0.084175 -0.38581 -0.19943 -0.0084589 -0.0075261 0.37892 -0.15421 -0.19812 -0.26783 0.11293 0.14341 -0.057463 -0.43633 -0.26545 -0.36965 -0.20322 0.3798 0.11634 0.053321 0.0010417 -0.044505 0.47306 -0.19152 -0.21353 0.45869 -0.085509 0.5208 -0.15702 0.10831 -0.044202 -0.32764 -0.32221 0.15089 -0.084091 -0.23042 0.10828 0.20913 0.036313 0.38471 0.43276 0.10715
! 0.010966 0.12951 0.1872 -0.066973 0.8312 0.53771 -3.3303 -0.37155 0.0039968 -0.66137 -0.304 0.26367 0.22768 -0.14927 -0.4284 0.24064 -0.45179 -0.29118 0.069824 0.20779 0.75028 0.33465 0.49537 0.22297 0.13036 -0.068168 -0.14224 -0.1797 0.13276 0.2823 -0.53609 0.076349 0.30155 0.13459 0.020036 -0.067524 0.090459 -0.2548 0.12052 0.12759 -0.23858 -0.012637 -0.28442 -0.44696 -0.023451 0.014909 0.30226 -0.29721 -0.18437 0.13388 0.089533 0.30941 -0.4308 -0.028575 -0.28231 -0.0040003 -0.066555 0.12575 0.28633 0.3083 -0.13092 -0.33537 0.3164 -0.045687 -0.25553 0.091062 -0.33861 0.10592 -0.11493 -0.083569 -0.38918 -0.15109 -0.21621 0.30484 -0.14448 -0.57883 -0.31123 0.017693 0.12234 0.46345 0.15663 -0.33012 -0.30775 0.2248 0.012715 0.055271 0.3332 0.45119 0.089576 0.16329 -0.41358 0.035402 -0.094787 0.18339 -0.056521 -0.12209 -1.4267 0.17473 -0.14747 -0.05151 0.0067998 -0.38367 0.39544 0.16531 -0.16734 -0.33109 0.17491 0.3136 0.12056 0.097482 -0.36819 -0.11056 -0.45927 -0.076203 -0.11445 0.85818 0.61494 -0.1371 -0.15957 0.067555 0.11712 0.044064 0.4037 0.55913 0.081468 -0.12609 0.057248 -0.1852 0.052991 0.11186 -0.72198 -0.048946 0.37703 -0.14061 0.038605 0.15946 0.049782 -0.22969 0.28238 1.1785 -0.25024 0.16163 0.17061 -0.26284 0.20387 -0.76307 0.31278 -0.17371 0.49594 -0.75039 0.33921 0.10343 0.27988 0.18172 -0.045981 0.59777 -0.60511 0.25997 0.50311 -0.028494 0.21357 -0.045163 -0.14484 -0.2066 0.3312 -0.22497 -0.69712 0.091063 0.93885 -0.42685 0.78766 0.27922 0.18998 -0.5818 -0.043903 -0.57867 -0.089361 -0.17762 -0.17343 0.12034 0.14329 -0.098215 0.10888 0.017299 0.3788 -0.17886 -0.056606 -0.34503 0.53012 0.25916 0.24715 0.018273 0.011857 -0.16483 -0.13825 -0.019858 0.052264 -0.091532 -0.038888 0.38647 -0.040627 0.022835 0.048366 -0.10275 -0.39727 -0.21596 0.18295 -0.17217 0.36253 -0.2456 0.029684 -0.46529 0.53672 -0.50279 -0.12382 -0.35526 -0.35897 0.16226 -0.35218 -0.35689 0.23276 -0.49353 -0.6108 -0.48335 -3.8761 -0.11576 -0.21201 0.43208 -0.37209 -0.44468 0.55797 -0.14606 -0.0030272 0.27789 0.24097 0.11543 -0.36997 -0.19412 0.11865 -0.13746 0.29241 0.065994 -0.16339 0.2535 -0.0091685 -0.38837 0.05562 -0.10217 0.26005 -0.31572 -0.22406 0.13383 0.1762 -0.054332 0.24819 -0.4283 0.5239 0.059989 -0.25619 -0.23646 0.18426 0.22639 -0.35415 -0.30875 -0.11851 0.094148 -0.19901 -0.25778 -0.072166 0.056544 0.10478 0.093941 -0.65583 0.23576 -0.32949 -0.057441 0.15727 0.20184 0.30508 -0.069749 0.45668 -0.77375 0.22083 0.21147 0.12812 0.69931 0.036284 -0.17059 -0.58998 0.37411 -0.031475 -0.13592 -0.61016 0.16833 -0.052163 -0.19483 -0.49994 -0.37518 -0.69116 0.21378
but 0.067075 0.015721 -0.036701 -0.48664 0.12004 -0.073948 -4.8147 0.14829 -0.062754 -0.57821 0.19531 -0.16783 0.1792 0.010329 -0.17708 0.00084251 -0.12695 -0.24976 -0.046344 -0.28575 0.20258 -0.032372 -0.21928 0.16003 -0.09831 -0.24383 -0.051614 -0.22456 0.42596 -0.202 -0.19563 0.21579 0.17371 -0.26564 0.020832 -0.093305 0.089169 0.082812 0.023005 -0.10964 0.19658 0.21683 -0.032947 -0.31846 -0.26455 -0.11707 -0.18504 -0.36242 -0.15604 -0.065449 -0.093455 0.090207 0.086725 0.017265 -0.063958 -0.21988 -0.032242 -0.1237 0.13592 -0.31194 0.07046 -0.20386 0.44857 0.22294 0.16045 0.04138 0.13018 0.070543 0.096996 -0.44157 -0.21372 -0.084357 0.19286 -0.31715 0.13343 -0.16046 0.28446 -0.05143 0.17266 0.17561 0.0032483 -1.0721 -0.19658 -0.2553 0.12356 -0.11948 0.039892 0.1625 0.15889 -0.22762 0.018361 0.14141 -0.19769 -0.15962 0.14086 -0.05001 -1.9473 -0.16172 0.12261 0.15273 0.16021 0.12875 0.018426 -0.025461 -0.046474 -0.059419 0.044359 -0.4773 -0.0049819 -0.10074 0.085981 -0.31055 0.11678 -0.22413 -0.33151 0.32705 0.19012 -0.34203 -0.070067 0.27646 0.067448 -0.31154 0.072255 -0.078623 -0.055752 -0.27988 -0.056086 -0.29645 0.13457 -0.077991 -0.036386 -0.12522 0.14875 -0.21633 -0.049996 0.2943 0.44613 0.15669 0.35184 0.43105 0.108 0.39119 0.086704 0.087099 0.081345 -0.30921 0.19378 -0.20982 0.19142 0.13216 -0.14866 0.0053915 0.054837 -0.31429 0.23582 0.013961 -0.1326 -0.00015444 -0.46262 0.13014 0.015362 0.21166 -0.22066 0.069481 -0.066187 -0.09386 0.017508 -0.25423 0.16061 -0.46196 0.0817 0.067896 -0.38683 -0.039933 -0.2482 0.44309 0.049897 -0.14671 -0.36135 -0.20249 -0.0020588 0.28334 0.055562 -0.048931 0.0186 -0.36683 0.24033 -0.037422 0.19667 -0.011165 0.35051 -0.29992 -0.026607 -0.30849 -0.050726 0.26606 -0.11297 -0.16777 0.13951 -0.16918 0.11819 -0.36217 -0.37681 0.34484 -0.074843 0.32593 0.033453 0.076395 0.49584 -0.033805 0.18318 -0.17352 0.015036 -0.21016 0.13426 0.072127 -0.044921 0.092547 -0.17421 -0.1036 -0.22916 -0.30346 0.38135 -0.27214 -2.9397 0.16977 -0.026859 0.006465 0.092086 -0.21652 0.30697 0.048112 0.052797 -0.2204 -0.16465 -0.11449 0.0093494 0.21008 0.14352 0.023149 0.08515 -0.051483 -0.64587 0.303 -0.014422 -0.24399 -0.3494 0.098595 -0.058891 0.40081 0.16072 -0.17194 0.034043 -0.086509 0.26903 -0.14322 0.31149 -0.26022 -0.13413 0.33564 -0.09687 0.071546 0.11149 -0.25401 -0.064326 -0.065934 -0.37016 -0.025627 0.022177 -0.046107 -0.025625 0.046779 -0.20736 -0.21905 -0.11658 -0.21783 0.1642 0.31535 -0.12166 0.11185 0.96689 -0.33437 0.54339 0.43058 -0.050567 0.18145 -0.15794 0.15552 -0.13522 -0.17292 -0.11966 0.029268 -0.29924 -0.37401 0.11604 0.10903 -0.043369 -0.28279 -0.10721 0.11927
