the -0.20838 -0.14932 -0.017528 -0.028432 -0.060104 -0.2646 -4.1445 0.62932 0.33672 -0.43395 0.39899 -0.19573 0.13977 -0.021519 0.37823 -0.5525 -0.1123 -0.0081443 0.29059 0.066817 0.10465 -0.086943 -0.048983 -0.26757 -0.47038 0.27469 0.069245 -0.027967 -0.19719 0.016749 -0.29681 0.17838 0.058374 -0.24806 0.085846 0.35043 0.049157 -0.16431 0.50012 -0.18053 0.31422 0.10671 0.031852 0.074278 0.27956 0.080317 0.05478 -0.30349 -0.43215 0.32417 0.40856 0.36192 0.13445 -0.12933 0.11331 -0.15755 0.35755 0.30463 -0.098488 0.012032 0.45581 0.37101 0.1427 -0.43329 -0.10869 0.49849 0.54455 0.44352 0.31804 0.022171 -0.41186 -0.025428 0.21062 -0.3583 0.22028 -0.55391 -0.035364 -0.053998 0.32172 -0.51928 -0.27427 -0.45214 -0.329 -0.48519 0.52966 0.0041434 -0.1718 -0.18748 -0.24365 -0.060786 0.050733 -0.21335 0.27627 0.42745 0.011461 -0.29794 -3.2881 -0.39842 0.16796 -0.12894 0.0020005 0.45613 0.15215 0.15364 -0.21281 -0.25339 0.28955 -0.57817 -0.6074 0.10301 0.28324 0.21506 -0.042325 0.40479 -0.20579 -0.011674 0.26092 -0.15402 0.057961 -0.058576 -0.41974 0.52015 0.15074 -0.088039 -0.14446 -0.17074 0.083752 -0.25708 0.16362 0.14795 -0.059821 0.034473 -0.14534 -0.17965 0.076303 0.33354 -0.14434 0.17618 0.45345 0.15262 -0.0751 0.27592 0.081456 0.30738 -0.072327 0.10706 -0.35581 -0.02669 0.61236 0.70829 -0.28945 -0.024637 0.01189 -0.091899 -0.27272 -0.10157 0.44713 0.092418 -0.10711 -0.015552 0.12822 0.22256 -0.069059 0.29927 -0.10913 0.1618 0.14796 0.1136 0.26634 0.010832 0.071946 0.16973 -0.22769 0.322 -0.083748 0.65269 0.068244 -0.32687 0.31782 0.17035 0.79803 -0.19194 -0.16485 -0.32437 0.079105 -0.35672 -0.26786 -0.24786 0.70512 -0.11909 0.16256 -0.43259 -0.050078 0.050232 -0.1145 -0.041885 0.47866 0.012767 0.19642 0.26196 -0.29425 0.089615 -0.17736 -0.22448 0.22624 0.16749 0.05577 0.14399 0.2158 0.33819 0.23459 0.15826 -0.2856 0.24199 0.11018 0.38164 -0.2984 -0.20169 0.2695 0.11186 -0.21006 -0.04207 0.016507 -0.22866 -3.3882 0.29204 -0.088358 -0.014966 -0.25225 -0.11503 0.036337 -0.14817 0.04622 -0.073466 -0.13866 0.23612 0.033882 0.29495 -0.61234 0.20289 -0.42091 0.37767 0.03626 0.21708 0.12561 -0.21682 -0.0037997 -0.17791 -0.26431 0.31678 -0.051229 0.049269 -0.12622 -0.10117 0.017246 -0.02195 -0.1982 0.03725 -0.16791 -0.055459 0.5767 0.059123 0.22931 0.064201 0.27424 -0.37129 -0.091375 -0.071342 -0.037218 -0.012668 -0.017976 -0.42622 -0.10095 0.044992 -0.090225 0.22915 0.1861 0.36366 -0.20676 -0.33037 0.47302 0.2338 0.079306 0.21083 0.21013 0.15275 0.080873 -0.33013 -0.17181 -0.07017 -0.041244 -0.46182 0.027903 0.54657 -0.25894 0.39515 0.26144 -0.54066 0.21199 -0.0094357
unk -0.20838 -0.14932 -0.017528 -0.028432 -0.060104 -0.2646 -4.1445 0.62932 0.33672 -0.43395 0.39899 -0.19573 0.13977 -0.021519 0.37823 -0.5525 -0.1123 -0.0081443 0.29059 0.066817 0.10465 -0.086943 -0.048983 -0.26757 -0.47038 0.27469 0.069245 -0.027967 -0.19719 0.016749 -0.29681 0.17838 0.058374 -0.24806 0.085846 0.35043 0.049157 -0.16431 0.50012 -0.18053 0.31422 0.10671 0.031852 0.074278 0.27956 0.080317 0.05478 -0.30349 -0.43215 0.32417 0.40856 0.36192 0.13445 -0.12933 0.11331 -0.15755 0.35755 0.30463 -0.098488 0.012032 0.45581 0.37101 0.1427 -0.43329 -0.10869 0.49849 0.54455 0.44352 0.31804 0.022171 -0.41186 -0.025428 0.21062 -0.3583 0.22028 -0.55391 -0.035364 -0.053998 0.32172 -0.51928 -0.27427 -0.45214 -0.329 -0.48519 0.52966 0.0041434 -0.1718 -0.18748 -0.24365 -0.060786 0.050733 -0.21335 0.27627 0.42745 0.011461 -0.29794 -3.2881 -0.39842 0.16796 -0.12894 0.0020005 0.45613 0.15215 0.15364 -0.21281 -0.25339 0.28955 -0.57817 -0.6074 0.10301 0.28324 0.21506 -0.042325 0.40479 -0.20579 -0.011674 0.26092 -0.15402 0.057961 -0.058576 -0.41974 0.52015 0.15074 -0.088039 -0.14446 -0.17074 0.083752 -0.25708 0.16362 0.14795 -0.059821 0.034473 -0.14534 -0.17965 0.076303 0.33354 -0.14434 0.17618 0.45345 0.15262 -0.0751 0.27592 0.081456 0.30738 -0.072327 0.10706 -0.35581 -0.02669 0.61236 0.70829 -0.28945 -0.024637 0.01189 -0.091899 -0.27272 -0.10157 0.44713 0.092418 -0.10711 -0.015552 0.12822 0.22256 -0.069059 0.29927 -0.10913 0.1618 0.14796 0.1136 0.26634 0.010832 0.071946 0.16973 -0.22769 0.322 -0.083748 0.65269 0.068244 -0.32687 0.31782 0.17035 0.79803 -0.19194 -0.16485 -0.32437 0.079105 -0.35672 -0.26786 -0.24786 0.70512 -0.11909 0.16256 -0.43259 -0.050078 0.050232 -0.1145 -0.041885 0.47866 0.012767 0.19642 0.26196 -0.29425 0.089615 -0.17736 -0.22448 0.22624 0.16749 0.05577 0.14399 0.2158 0.33819 0.23459 0.15826 -0.2856 0.24199 0.11018 0.38164 -0.2984 -0.20169 0.2695 0.11186 -0.21006 -0.04207 0.016507 -0.22866 -3.3882 0.29204 -0.088358 -0.014966 -0.25225 -0.11503 0.036337 -0.14817 0.04622 -0.073466 -0.13866 0.23612 0.033882 0.29495 -0.61234 0.20289 -0.42091 0.37767 0.03626 0.21708 0.12561 -0.21682 -0.0037997 -0.17791 -0.26431 0.31678 -0.051229 0.049269 -0.12622 -0.10117 0.017246 -0.02195 -0.1982 0.03725 -0.16791 -0.055459 0.5767 0.059123 0.22931 0.064201 0.27424 -0.37129 -0.091375 -0.071342 -0.037218 -0.012668 -0.017976 -0.42622 -0.10095 0.044992 -0.090225 0.22915 0.1861 0.36366 -0.20676 -0.33037 0.47302 0.2338 0.079306 0.21083 0.21013 0.15275 0.080873 -0.33013 -0.17181 -0.07017 -0.041244 -0.46182 0.027903 0.54657 -0.25894 0.39515 0.26144 -0.54066 0.21199 -0.0094357